tree
num_class=1
num_tree_per_iteration=1
label_index=0
max_feature_idx=6
objective=regression
feature_names=Column_0 Column_1 Column_2 Column_3 Column_4 Column_5 Column_6
feature_infos=[2015:2017] [1:12] [1:31] [0:6] [0:23] [1:4] [20151101440:20170631168]

Tree=0
num_leaves=55
num_cat=0
split_feature=5 6 4 4 4 3 3 6 6 6 5 6 4 3 3 6 5 6 6 4 4 5 3 3 3 4 3 4 6 4 6 6 4 5 6 3 6 5 6 3 3 4 4 5 4 4 4 4 6 6 2 3 6 6
split_gain=5893410.6842942014 1619354.2524894346 732431.1145164771 240839.41165510094 191585.7501873991 179734.18484518398 242239.51576415449 163921.66794566286 157108.90200980939 88724.455390319694 99059.091555191553 125636.65328510295 74601.893555654795 39212.49708362075 49356.701790755265 31140.993130168761 30667.300298616057 49932.167435930693 27795.507538160851 23188.015299224397 22096.27721215639 21669.204062341363 19323.207873725303 15359.201400210091 13048.621115742309 12965.271326981921 11773.055190058949 11376.984199311351 11285.932531480299 9280.8912087054941 9276.8018039957678 8416.0930208032369 7571.4093112800692 6863.2195699284784 8454.9653128354112 6735.3944144029447 6648.1187043348909 3988.0861050130989 4794.5251311881293 3911.002798552945 2981.2232375885615 2966.7137443091342 2645.1520176022896 2363.8573173842742 2313.9945840567816 2177.4738305792853 1978.822161363536 2176.5010353383441 1866.5266536529452 1390.6623126321065 4784.3750156596907 1325.3345287135198 1234.9010949137737 915.7358835790219
threshold=1.5 20160912384 9.5 9.5 9.5 5.5 9.9999996826552254e-21 20160502784 20170128384 20160119808 3.5 20170218496 1.5 5.5 9.9999996826552254e-21 20160165888 2.5 20170206208 20160203776 1.5 7.5 2.5 9.9999996826552254e-21 1.5 9.9999996826552254e-21 17.5 9.9999996826552254e-21 9.9999996826552254e-21 20170116096 2.5 20170120192 20170109952 7.5 3.5 20160713728 9.9999996826552254e-21 20160912384 3.5 20160713728 1.5 1.5 18.5 1.5 2.5 2.5 18.5 1.5 8.5 20170107904 20151124992 17.5 9.9999996826552254e-21 20170621952 20160713728
decision_type=2 2 2 2 2 2 2 2 2 2 2 2 2 2 2 2 2 2 2 2 2 2 2 2 2 2 2 2 2 2 2 2 2 2 2 2 2 2 2 2 2 2 2 2 2 2 2 2 2 2 2 2 2 2
left_child=1 3 12 18 16 6 25 15 -8 43 11 21 23 14 -9 35 17 36 46 39 24 -11 -13 48 -14 -4 -17 37 -22 40 41 -25 -21 34 -29 -5 42 38 -18 -20 -19 -7 -2 -6 -38 -32 -1 -48 -3 50 -45 -31 -12 -15
right_child=4 2 5 7 9 30 8 13 -10 10 52 22 20 53 -16 26 27 29 19 32 28 -23 -24 31 -26 -27 -28 33 -30 51 45 -33 -34 -35 -36 -37 44 -39 -40 -41 -42 -43 -44 49 -46 -47 47 -49 -50 -51 -52 -53 -54 -55
leaf_value=22.755890432200768 22.2887862458449 23.702770774064554 23.984434708575264 22.718187983995389 22.207987003715356 23.799063400931765 25.238636125264989 23.435066061274984 26.220919766648482 22.450508910372488 22.185860655087339 22.624410182139385 23.191362445567769 23.288178013883559 24.416071667985747 23.040926776961072 22.230675012683079 22.622834876659702 23.096243967571613 22.810589227388874 23.811195095374064 22.636369999123517 23.058074603489143 24.468278184694626 23.723911065432784 24.626045726156875 23.60786768563656 22.041016987311345 24.394754396753171 22.375314796307372 24.361415993794711 25.080814584186463 23.138127084445056 21.982848537830844 22.208235023472561 23.131765853075311 22.464324377945392 22.099337991893456 22.605622234365374 23.54456911137839 23.028968756444684 24.248696477946329 22.135684817316676 22.036670964782928 22.282525521980936 24.722374754486985 22.444982909757265 22.782715829022916 24.207485434259464 22.023898864723897 22.661635689664045 22.591310486399898 22.405956767175923 23.526222322516102
leaf_count=90 353 26 187 118 619 97 777 155 855 3122 1306 301 133 85 742 107 147 60 66 747 155 3151 1752 94 851 136 635 1295 178 83 111 139 231 915 1816 594 254 107 203 185 183 59 1405 121 563 67 322 56 62 448 41 492 67 77
internal_value=0 22.459286410593645 37.065894348146067 8.8345478427151747 -9.7538439230931981 48.618687416799936 52.281311100523183 15.049923860897499 57.233421270753823 -7.0440329863453943 -6.0297391421732636 -4.731960101047302 20.921606598360526 24.513519188063793 27.099501532206567 8.1572502354029286 -13.513723800795075 -11.245544625185442 -0.36948276052123036 2.1279474919081411 17.589816712623712 -6.9542300178852452 2.0582489531779369 34.591286596850814 15.206996722018149 27.260122871989438 12.690629671405588 -15.23041618153197 24.630942450629341 -4.4392578428961826 27.180276333928823 38.842326454850223 -0.072562176277118223 -15.76713944901423 -15.059050848443517 3.4328576209170096 -13.407697086510728 -10.502083851370953 -8.8687234223953322 10.702044924120029 0.74216427497657733 21.550727281814968 -14.503070911585404 -15.048618824120409 -11.050699308687864 32.114038424545463 -6.9279053678624649 -7.9312631212687368 23.335692427375101 -16.445678942284136 -13.934790458070275 -6.6289718857537148 -13.899592234973523 10.19483917142138
internal_count=26941 8137 3927 4210 18804 2289 1955 2513 1632 10928 9699 8326 1638 1059 897 1454 7876 3393 1697 1229 1317 6273 2053 321 984 323 742 4483 333 818 334 233 978 4026 3111 712 2575 457 350 251 243 156 1758 1229 817 178 468 378 88 610 162 575 1373 162
shrinkage=1


Tree=1
num_leaves=55
num_cat=0
split_feature=5 6 6 6 3 3 6 5 6 6 3 3 3 3 6 6 5 6 3 3 3 6 3 3 6 3 1 6 5 5 5 2 5 3 3 6 6 6 6 6 2 6 6 2 2 1 6 6 6 0 3 3 6 6
split_gain=5318802.9872841248 1461467.1414714074 171356.43754319847 146221.07141166768 115052.35408802703 122277.91167034581 89858.436042441987 156437.30990481365 75323.646342174849 59183.575254702009 48855.85691373935 51874.092472772812 32167.967330572195 34291.668588604953 31464.397740793935 29836.961421056767 25576.55137182858 17367.067159440368 15492.617086391272 9895.3827253379859 11634.851696046026 7293.4006001534144 5901.0576631649274 6425.8600270108918 5553.000135878101 5265.440216544841 5083.8181348384824 3573.881124275038 6231.6307407423737 3557.46887866834 3549.3910231501213 3000.3678748259117 2889.9038835330866 2006.5850467533164 1808.8841447391314 1742.0325192347627 1683.7998395757968 2893.8926761985349 1518.3113590893827 1354.1830063893576 3973.7891672574406 1199.2346938009141 1176.109793408541 1112.5825816374272 1036.5755189930351 825.4680053818447 722.85632703173906 758.0670022451668 687.88997359900895 565.34416870144923 559.7319854281377 753.79070049658185 395.26977413182613 389.78305493935477
threshold=1.5 20160912384 20170116096 20160424960 9.9999996826552254e-21 5.5 20160713728 3.5 20170218496 20170517504 9.9999996826552254e-21 5.5 9.9999996826552254e-21 5.5 20160165888 20160119808 2.5 20160717824 9.9999996826552254e-21 9.9999996826552254e-21 5.5 20170503168 9.9999996826552254e-21 5.5 20161016832 9.9999996826552254e-21 7.5 20160521216 2.5 2.5 2.5 22.5 2.5 5.5 9.9999996826552254e-21 20160615424 20170107904 20161223680 20160721920 20151124992 17.5 20170628096 20170519552 4.5 23.5 5.5 20170304512 20170529792 20160904192 2015.5 9.9999996826552254e-21 5.5 20170513408 20160103424
decision_type=2 2 2 2 2 2 2 2 2 2 2 2 2 2 2 2 2 2 2 2 2 2 2 2 2 2 2 2 2 2 2 2 2 2 2 2 2 2 2 2 2 2 2 2 2 2 2 2 2 2 2 2 2 2
left_child=1 3 10 14 43 9 15 8 25 -6 36 24 38 17 22 30 18 -14 -10 -16 -21 -18 49 -24 -12 29 -27 28 33 -8 50 -30 34 -17 -29 -15 37 -3 -5 40 -32 46 -7 -4 -13 -34 -9 -48 -40 -1 -2 -52 -45 -41
right_child=6 2 4 12 5 42 7 41 16 -11 11 44 13 35 19 27 21 -19 -20 20 -22 -23 23 -25 -26 26 -28 32 31 -31 39 -33 45 -35 -36 -37 -38 -39 48 53 -42 -43 -44 52 -46 -47 47 -49 -50 -51 51 -53 -54 -55
leaf_value=-0.35359584753178369 -0.78756466469207376 0.7231369217974799 1.4820994453430176 0.14227532721301425 2.18038857636749 1.193344304561615 -0.62067773942572479 -0.7089134959264749 -0.32770812839496277 2.8588763990466806 1.4472742549083182 0.91063651223488851 0.7789139297901837 0.14069725838825875 -0.016292077878456629 -0.5555661879249022 -0.1522842253374645 1.1409232410751744 0.088146713556014528 0.47904739198814222 0.018060725394523507 -0.35492217476892324 0.074566590861932749 -0.27079752098236765 1.6889452659752635 -0.30514418343305072 -0.41277623890186876 -0.72191610247175275 -0.48281187267988096 -0.41512943569810024 -0.85120808295349581 -0.33234634714968064 -0.56029423040743098 -0.71188204675912869 -0.49889508078906158 0.40624550376744833 1.0719105106812936 0.14804511037468912 0.32485099934502365 -0.88645364011227545 -0.42677671356420777 -0.45948959750098156 1.4221750660946495 1.0958321535468696 0.69095777712370232 -0.69885251496192413 -0.7878515642801921 -0.70771098715253178 0.64689970642328265 -0.16889350035833936 -0.66422333132057265 -0.78951304775851594 1.2234041628823884 -0.8086372201902825
leaf_count=121 154 175 25 158 1171 215 407 833 263 443 323 183 797 97 167 1420 1014 567 1509 803 165 790 824 161 900 1587 3554 107 1191 436 201 459 131 240 605 170 27 25 97 547 76 37 76 201 76 599 1125 400 20 63 748 143 87 228
internal_value=0 21.336321620551026 35.212598822261498 8.3928202972453168 41.011023529082188 43.930410479873494 -9.2661517497061556 -7.6115514471570735 -5.8009653047021388 47.332308149987732 27.687200343778009 29.779751639858432 14.872353538311822 16.55925505133694 3.0325814268144313 -12.154273609389945 -2.1699025143819219 18.587945450621703 0.52851188474210742 6.7829832326144901 8.0094023854664158 -4.8204514696190497 -0.60874111346193005 0.36232426379840388 32.502376512070711 -7.9708651272598079 -7.5910156474051469 -10.767758161895705 -10.19535705002413 -10.287361184119613 -15.296248529033543 -8.8191019842841403 -12.08166085280757 -11.563321422597012 -10.648217607917411 6.1954584048035439 14.025698049543713 13.025008907392621 4.8674940192428506 -16.592914111204021 -14.695151978666601 -14.838776299712055 25.062153299239903 23.242869723147859 16.923495969141772 -13.479758921796329 -14.927416003248366 -15.336621700671852 7.5980412076808452 -5.8071073993392615 -13.990897148704985 -13.686631148311024 22.687390627339482 -17.271211028252878
internal_count=26941 8137 3927 4210 2218 1905 18804 11955 9560 1614 1709 1482 1906 1631 2304 6849 3576 1364 1772 1135 968 1804 1169 985 1223 5984 5141 4752 3310 843 2097 1650 1442 1660 712 267 227 200 275 1052 277 2395 291 313 259 730 2358 1525 117 184 1045 891 288 775
shrinkage=0.05


Tree=2
num_leaves=55
num_cat=0
split_feature=5 6 4 4 4 3 3 6 6 6 5 6 4 3 3 5 6 6 4 4 5 3 3 6 4 4 3 4 6 6 4 6 4 6 3 6 4 5 3 5 6 4 3 4 4 4 4 5 6 5 6 2 3 6
split_gain=4800219.6221976411 1319221.114121038 663808.60051564965 212998.5833224805 172964.67016257276 148883.87176335882 208871.15768923517 137383.63924747054 133047.47269008309 73858.455533859495 82024.455299328489 104452.5236689664 67138.719786271336 32624.67566160782 40944.933908454608 25954.082275119843 39729.651557411882 25629.47259085819 21557.66702509555 20464.757226971036 20135.131617805979 15706.060553401036 13906.860227197583 12904.074472340348 12262.519937598205 10978.405386388418 10353.639430913565 10259.224574935972 10178.842063217624 9124.1884412748332 8376.6494208088425 7710.021935683093 7041.7955000505035 6701.9551582172862 5612.7237282978795 5477.1056284518563 5450.1010364512913 3665.2671702560037 3530.6998426658065 3282.4294392448137 3991.2322573559613 2671.303165580699 2558.5730189797505 2370.4089644154883 2090.6910684658505 1973.8191367698128 1970.4807725711144 1924.5191285097098 1573.6953479102376 1537.0167505818172 1164.4994999733754 4014.7406341546121 1114.4313776909294 1042.6993071819015
threshold=1.5 20160910336 9.5 9.5 9.5 5.5 9.9999996826552254e-21 20170507264 20160502784 20160119808 3.5 20170206208 1.5 5.5 9.9999996826552254e-21 2.5 20170206208 20160165888 1.5 7.5 2.5 9.9999996826552254e-21 1.5 20160207872 17.5 2.5 5.5 9.9999996826552254e-21 20160115712 20170116096 2.5 20170120192 7.5 20170109952 9.9999996826552254e-21 20160912384 8.5 3.5 1.5 3.5 20160713728 18.5 1.5 1.5 2.5 8.5 18.5 2.5 20170107904 3.5 20151124992 17.5 5.5 20170619904
decision_type=2 2 2 2 2 2 2 2 2 2 2 2 2 2 2 2 2 2 2 2 2 2 2 2 2 2 2 2 2 2 2 2 2 2 2 2 2 2 2 2 2 2 2 2 2 2 2 2 2 2 2 2 2 2
left_child=1 3 12 18 15 6 24 -8 17 47 11 20 22 14 -10 16 35 34 28 25 -11 -13 48 45 -4 -14 -19 39 -1 -21 42 41 -25 -24 -5 43 37 -29 -30 40 -17 -7 -18 -2 -37 -20 -33 -6 -3 -38 51 -49 -32 -12
right_child=4 2 5 8 9 31 7 -9 13 10 53 21 19 -15 -16 27 30 26 23 29 -22 -23 33 32 -26 -27 -28 36 38 -31 52 46 -34 -35 -36 44 49 -39 -40 -41 -42 -43 -44 -45 -46 -47 -48 50 -50 -51 -52 -53 -54 -55
leaf_value=-0.19768801553050677 -0.54474963344865757 0.7081711241177151 0.97724938453951238 -0.1503302411507752 -0.61445596591962182 0.81986073218670086 2.3818576405166221 3.5242823655844462 0.47346302605908497 -0.40540703056456584 -0.63439093734259189 -0.24511646044311802 1.0042335043289909 0.46845035091226483 1.3933377527210811 -0.59755331048754612 -0.24809200781087082 0.66124171320407654 -0.41683205777912269 0.80255553133976765 -0.22333420170056067 0.13761562250155354 1.4249907909555639 -0.10544977117564902 1.5913249455445202 0.55531501510194026 0.12957469024390819 -0.71588284610626074 0.15194063392632151 1.3263586266656942 -0.28897347878701618 1.333481025695801 0.21508148505651792 1.9716005695809564 0.22720944275734603 -0.38481943787141581 -0.50670428086083141 -0.83605715389819513 0.57007886231876914 -0.71558253675977768 -0.25545506987151845 1.2465208215228583 0.12815311500609247 -0.68968206061162984 -0.55762388259437123 -0.10326777666302052 1.6768548737710984 -0.76960372609540462 1.1597948289686635 -0.73699802974967854 -0.78113871725176331 -0.19710879612986634 -0.50185397965567458 -0.45358302943846757
leaf_count=75 353 28 192 118 619 97 1315 329 145 3022 1288 311 163 162 730 147 60 635 336 156 3052 1941 94 729 141 828 107 2770 68 178 505 111 224 139 594 254 341 823 196 107 203 59 183 1405 563 59 67 121 62 92 448 41 70 85
internal_value=0 20.269505357542609 33.349817434378977 7.8748295528046492 -8.8028441206386674 44.284528642119085 47.583615525644959 52.209631332805849 13.750735250064249 -6.2280880497986013 -5.3026609148944246 -4.1217279026627995 18.016008210418185 22.404583512299777 24.81802738891329 -12.37533451451122 -10.288719037268283 7.5787678168192407 -0.80144850995389394 14.864624787102331 -6.2784195915582117 1.6952105157877952 30.943509869531212 -2.5941098037283612 24.745267216418242 12.58306546337098 11.691454979533335 -13.954608731393952 6.3268919738454628 21.634161582963909 -4.2174788700703596 24.756699993224913 -0.60219581394308763 35.021597727173898 3.2927932736537096 -12.217369311741255 -14.464284649195582 -14.868191045769867 9.2475318273839857 -9.4645534905419577 -7.9827266186050005 19.624515319481873 0.70506169361832705 -13.21160313727777 -10.078002034760601 -7.3999174803495409 29.25456970729185 -13.531357196613577 20.385793526967365 -11.112701085935978 -14.791923174677326 -12.494260678872649 -6.2977873169857519 -12.463948795331801
internal_count=26941 8137 3959 4178 18804 2311 1977 1644 2491 10928 9699 8326 1648 1037 875 7876 3393 1454 1687 1325 6074 2252 323 1348 333 991 742 4483 339 334 818 334 953 233 712 2575 4026 3593 264 457 350 156 243 1758 817 395 178 1229 90 433 610 162 575 1373
shrinkage=0.05


Tree=3
num_leaves=55
num_cat=0
split_feature=5 6 4 4 4 3 3 6 6 6 5 4 6 3 3 6 6 5 6 6 4 4 3 3 3 5 6 3 4 4 6 4 6 5 6 3 6 4 6 3 5 6 5 6 3 4 4 4 4 5 5 6 4 4
split_gain=4332198.206523384 1191652.1534343283 592967.94887605403 199495.51259886462 156100.6170591102 138407.40598030156 185370.71268954966 127646.31447374437 119765.76121711312 67519.7425282849 104576.89887146889 59736.778225714806 54151.330887003161 30204.51187718939 37651.00356025697 25267.572059118698 23876.559398524114 23423.558700768044 35856.010548713675 20024.010631340992 20021.413077772442 18921.102552428958 15034.459686703851 12375.529508049105 12263.750166163081 12095.370451282055 10859.492235930695 10084.073767763926 9258.9501418068539 7559.9258908113661 6978.0839187020902 6350.1162484805391 5790.7164143413538 5222.7616752666654 12390.44602816282 5065.4830769218979 4943.0879499041475 4918.7161196472589 4684.8651679416944 3436.6212665224593 3307.9028442086419 3033.7563833654567 2962.3923870846993 3602.0871368331755 2309.1120982526454 2217.8441174452309 2168.4410321188043 1886.8487599249202 1860.8108913016913 1736.8783305089455 1387.1573096744542 1333.0273053827987 1089.525330954737 1398.9155961266224
threshold=1.5 20160914432 9.5 9.5 9.5 5.5 9.9999996826552254e-21 20160508928 20170507264 20160713728 3.5 1.5 20170218496 5.5 9.9999996826552254e-21 20160165888 20160119808 2.5 20170206208 20160119808 1.5 8.5 9.9999996826552254e-21 9.9999996826552254e-21 1.5 2.5 20170107904 5.5 9.9999996826552254e-21 2.5 20170114048 8.5 20170130432 2.5 20160504832 9.9999996826552254e-21 20160912384 8.5 20170107904 9.9999996826552254e-21 3.5 20160629760 3.5 20160713728 1.5 18.5 2.5 2.5 18.5 2.5 3.5 20170107904 1.5 8.5
decision_type=2 2 2 2 2 2 2 2 2 2 2 2 2 2 2 2 2 2 2 2 2 2 2 2 2 2 2 2 2 2 2 2 2 2 2 2 2 2 2 2 2 2 2 2 2 2 2 2 2 2 2 2 2 2
left_child=1 3 11 19 17 6 26 15 -8 16 12 24 25 14 -9 35 49 18 36 52 41 23 -14 -13 51 -11 -4 -17 42 44 45 -22 -26 39 -35 -5 46 40 -23 -18 -30 -21 43 -19 -20 -7 -2 -38 -32 -6 -39 -3 -1 -54
right_child=4 2 5 7 9 30 8 13 -10 10 -12 21 22 -15 -16 27 33 28 29 20 31 38 -24 -25 32 -27 -28 -29 37 -31 48 -33 -34 34 -36 -37 47 50 -40 -41 -42 -43 -44 -45 -46 -47 -48 -49 -50 -51 -52 -53 53 -55
leaf_value=-0.178628804447589 -0.54256525470276751 0.67527633011341104 0.81495977114371176 -0.14281373354843108 -0.58373315912071078 0.76438498431509672 2.278918270526693 0.47663315300540676 3.3480681622281985 -0.31847436852067212 -0.59203757352405284 0.22327442245156159 -0.22727533343102646 0.45392627789608897 1.3596430984515591 0.6387009268931565 -0.64034087390315786 -0.5676756475348862 -0.23568740901847682 0.33119967654604693 -0.083736351412392454 0.90146913562022479 0.15524814185754454 0.70665463359034586 1.4113736037697111 -0.13250815661833587 1.4120067038536073 0.13076494337108577 -0.68008870603698268 -0.29914489749721856 1.2530487838973348 0.29590528661012655 1.9122835447808275 -0.18634958899789661 -0.49198812562770577 0.21584896305356463 -0.36557846404318739 -0.48136907233105553 1.4359819874321063 -0.4145089587512068 -0.79425428503194095 0.69331960336579124 -0.67980340262439765 -0.24268231784128882 0.12174545368128786 1.1688695351282756 -0.66383571388659546 -0.52974268960275195 1.5761159684922961 -0.70261633603238183 -0.70014810950859729 1.1018051139770015 -0.43179888428913227 -0.13350214660167695
leaf_count=77 526 26 123 118 619 91 1285 145 329 1727 1373 153 301 155 721 684 196 147 60 181 927 71 1752 984 112 1771 200 114 2770 575 117 125 119 826 554 594 254 341 97 1199 823 85 107 203 183 54 1232 563 72 610 92 62 270 46
internal_value=0 19.256030101457966 31.885182213796654 7.6599557314534401 -8.3627018948133838 42.319073901702424 45.560823909357524 13.298411341584963 49.937105365549911 -5.9166836099859426 -4.0264584028975126 17.294438357125472 -2.0936491105551953 21.934829661963793 24.235900257952839 7.4588198812493429 -9.185394732333668 -11.756567793314433 -9.7742831133132562 -0.68074043993340083 1.1873121518650189 14.29584226050482 1.9832914678195717 12.832174953174832 29.561422388755414 -4.486433275050163 23.692965487393064 11.322772870657214 -13.256878281657954 -4.0066049530154917 23.518865024972104 -0.77253682382171085 33.388362376720877 -7.5602827743259633 -6.1809591610146608 3.128153468963554 -11.606500874526292 -13.741070402600149 24.201733501184556 -8.9247749509349941 -14.124781476781125 8.9382938151072739 -8.9913258113882026 -7.5835903262519944 0.66980851708370959 18.300412202703541 -12.551023020272369 -9.574101936678554 27.522439941527352 -12.854789104564244 -10.557066038784336 19.515704920346085 -6.9456089284583813 -7.7675188292242305
internal_count=26941 8137 3895 4242 18804 2271 1937 2531 1614 10928 6924 1624 5551 1021 866 1510 4004 7876 3393 1711 1318 1305 2053 1137 319 3498 323 798 4483 818 334 1052 231 2775 1380 712 2575 4026 168 1395 3593 266 457 350 243 145 1758 817 189 1229 433 88 393 316
shrinkage=0.05


Tree=4
num_leaves=55
num_cat=0
split_feature=5 6 4 4 4 6 6 3 3 6 5 4 6 3 3 3 3 6 6 5 6 6 4 4 3 6 3 3 5 4 4 4 4 6 4 3 6 5 6 6 3 5 3 5 6 3 4 5 4 6 4 5 3 6
split_gain=3909808.901926755 1075466.0708254715 535153.5870939903 180044.70084093409 141253.8853610768 127212.37680034013 115200.80184051546 88025.826609472744 118673.99377528531 58991.183976784523 92195.789563004917 53912.443846761249 46799.875513558116 35845.244893901283 48448.321929398691 27259.572755134315 33980.031275011657 22846.581536641112 20715.363885265251 18950.542621187167 36164.936550631828 18208.85902584048 17676.766041783168 17076.295336355572 13230.495969796089 11606.509279424063 11068.03439137325 11044.916501367101 10634.657789073441 10270.730654796585 10341.887966236332 7753.9661087586428 6243.4315157698184 5378.420339098986 4885.6871484086441 4692.7016678111977 4379.8634958178736 4240.2331106132478 10641.472865325159 4228.0899620372948 4160.9895747510927 3603.7402573089348 3388.5471906864841 3150.2270901638112 4532.6023414767624 2265.4676798546684 2173.8473206631388 2057.5024909424828 1813.397545663116 1639.5892171820269 1535.6612547191762 1471.641219408426 1292.5259736444168 1203.0571646229619
threshold=1.5 20160914432 9.5 9.5 10.5 20170116096 20160508928 9.9999996826552254e-21 5.5 20160713728 3.5 1.5 20170218496 5.5 9.9999996826552254e-21 5.5 9.9999996826552254e-21 20160111616 20160119808 2.5 20170130432 20160203776 2.5 8.5 9.9999996826552254e-21 20170116096 1.5 9.9999996826552254e-21 2.5 8.5 1.5 7.5 2.5 20170320896 17.5 1.5 20160912384 2.5 20160504832 20170107904 5.5 3.5 5.5 3.5 20160128000 1.5 18.5 3.5 1.5 20160103424 2.5 2.5 5.5 20170107904
decision_type=2 2 2 2 2 2 2 2 2 2 2 2 2 2 2 2 2 2 2 2 2 2 2 2 2 2 2 2 2 2 2 2 2 2 2 2 2 2 2 2 2 2 2 2 2 2 2 2 2 2 2 2 2 2
left_child=1 3 11 21 19 13 17 34 -9 18 12 26 28 14 -4 16 -8 40 51 20 36 49 35 25 -14 -13 53 -19 -11 30 41 -24 45 -28 -7 -23 48 42 -39 -25 -5 -21 -20 44 -31 -22 -15 -32 -2 -1 -38 -6 -34 -3
right_child=4 2 5 6 9 7 15 8 -10 10 -12 23 24 46 -16 -17 -18 27 37 29 32 22 31 39 -26 -27 33 -29 -30 43 47 -33 52 -35 -36 -37 50 38 -40 -41 -42 -43 -44 -45 -46 -47 -48 -49 -50 -51 -52 -53 -54 -55
leaf_value=-0.36402007875541531 -0.49038388891193074 0.6415125167140594 0.85700829330075912 0.15379328001478706 -0.5509475354829596 1.0938480704438454 0.45280149907901368 2.7299169079957792 1.3208594115932337 -0.2914897137508029 -0.55889233979797337 0.42824726572599436 -0.20765641896103501 0.73913711395460302 1.8841516403293193 0.43122996311995299 1.2916609541883748 0.096495597582336862 -0.38213174464523525 -0.43577755257675221 -0.23857200825586916 0.061427827076796372 -0.14481739006907446 0.85639570498130702 0.16673780796361359 0.75030435745138679 1.4120137545623279 0.57626168506529263 -0.1103905048598422 -0.70198411333178168 -0.66313023271004101 0.19153131049078628 -0.24538130431555874 1.9206039984014973 1.6104780013302724 0.46516336307988065 -0.35076783433127307 -0.16829678637535353 -0.46248108907720731 1.36418286303884 -0.25805847655449593 -0.67984473032829085 -0.61648984141855934 -0.63718043202384911 -0.35080201701090963 0.10538091949089186 1.1240256269099349 -0.75853061781448572 -0.61574614545087247 -0.1651715235820701 -0.49909574844918075 -0.66477705078465599 -0.45251805220925534 1.0467148650077083
leaf_count=313 353 26 138 495 576 102 145 931 178 1603 1278 497 276 97 683 155 721 141 1115 674 64 98 640 71 1627 640 152 804 1640 109 2446 234 606 79 83 271 243 767 513 97 70 195 179 187 585 190 59 735 1578 155 619 560 86 62
internal_value=0 18.293228648331247 30.2909231681666 7.2769579847860522 -7.9445668170440458 40.203120394232172 12.633490825128229 46.706457401906505 50.075123834223014 -5.40947216709767 -3.5759452286766327 16.429716332948061 -1.6880264173693142 31.589693487445494 34.230029593676726 20.838088337313767 23.024105435017901 7.0858788649021145 -8.5842907796089225 -10.90773281272531 -9.2099151595092881 -0.6467033938849307 1.3550184305520521 13.581050001580797 2.2487571405523239 12.1905660481039 28.083351324905049 10.093550773578938 -3.9981402350458106 -12.195126892095564 -12.868248622978543 -1.0953044162325782 -3.8660434826708401 31.718944291531781 26.512667815749708 7.1587641435324496 -11.019905351521164 -7.014491147939883 -5.7240067788516171 22.991646758147649 2.0553479733984026 -9.8109043233773932 -8.2910135532203935 -9.1007534413849278 -8.1191771845690575 0.37431229723573434 17.694078466831108 -13.703467798191809 -11.856581359993665 -5.9632423421224718 -9.1456346179244132 -12.141213536577325 -5.4224746504400159 18.539919787509874
internal_count=26941 8137 3895 4242 18804 2271 2531 1294 1109 10134 6424 1624 5146 977 821 1021 866 1510 3710 8670 3739 1711 1243 1305 1903 1137 319 945 3243 4931 4050 874 946 231 185 369 2793 2574 1280 168 565 869 1294 881 694 254 156 3181 1931 468 862 1136 692 88
shrinkage=0.05


Tree=5
num_leaves=55
num_cat=0
split_feature=5 6 4 4 4 6 6 3 3 6 5 4 6 3 3 3 3 6 5 6 6 4 4 3 3 4 5 3 6 4 6 6 4 6 4 4 5 6 4 6 3 3 4 3 5 6 4 6 3 4 4 5 4 6
split_gain=3528602.587551353 971747.17181452597 492478.87443500059 153892.13842146684 127633.91295186593 123937.58354394184 93943.597565173928 80329.373351808637 111628.31290756678 55094.107857578085 85272.766803210514 50098.496499070898 44247.687896201256 32115.349419713602 41582.607717329287 23626.94499875739 29954.004136453499 19458.964896194462 19040.285930984188 29221.843169497675 17339.715320654919 16250.748440919349 16150.904097761435 12303.453471493758 10047.838310600317 9981.2650611681602 9839.9181212552721 9459.2713877875212 9173.4996649302684 7819.6507898825221 7407.00814635797 7211.9282288487466 6208.8922445409116 5441.9473021505983 5415.5853842318584 4252.0833063895116 4232.0875300210755 10366.802559522563 4101.0753390844766 4046.51184189989 3213.9023931829925 3154.7445389177301 2806.2932082584593 2743.1444057156586 2449.9586166757981 3356.9969333213321 2131.5118537226808 1966.3563745260326 1878.2266059620104 1670.5495007752907 1582.8947805190346 1415.4386782062356 1221.8693598278551 1146.305420420922
threshold=1.5 20160906240 9.5 9.5 9.5 20170107904 20160424960 5.5 9.9999996826552254e-21 20160713728 3.5 1.5 20170218496 9.9999996826552254e-21 5.5 5.5 9.9999996826552254e-21 20160119808 2.5 20170206208 20160103424 1.5 7.5 9.9999996826552254e-21 1.5 2.5 2.5 5.5 20160207872 9.9999996826552254e-21 20170116096 20160115712 2.5 20170109952 8.5 7.5 2.5 20160565248 18.5 20161002496 5.5 9.9999996826552254e-21 2.5 1.5 3.5 20160412672 2.5 20160128000 1.5 18.5 8.5 2.5 2.5 20170107904
decision_type=2 2 2 2 2 2 2 2 2 2 2 2 2 2 2 2 2 2 2 2 2 2 2 2 2 2 2 2 2 2 2 2 2 2 2 2 2 2 2 2 2 2 2 2 2 2 2 2 2 2 2 2 2 2
left_child=1 3 11 21 18 13 20 8 -7 17 12 24 26 38 -15 16 -8 51 19 39 40 31 25 -14 53 -13 -11 -22 50 44 -24 -1 48 -26 -30 42 41 -38 -4 46 -5 -19 -31 -33 45 -20 -2 -37 -21 -9 -23 -6 -41 -3
right_child=4 2 5 6 9 7 15 49 -10 10 -12 22 23 14 -16 -17 -18 36 29 32 27 28 30 -25 33 -27 -28 -29 34 35 -32 43 -34 -35 -36 47 37 -39 -40 52 -42 -43 -44 -45 -46 -47 -48 -49 -50 -51 -52 -53 -54 -55
leaf_value=-0.16252709333598614 -0.48141367654715267 0.60893042335020642 0.5402494625611739 0.1231872117647199 -0.52677405521827292 1.2768820290565492 0.39062746558828576 1.1258449591123141 2.5735265793858986 -0.2872077172967219 -0.53422023164731092 0.88551800590075436 -0.20517945320305239 1.7390316972179691 0.8204974931081136 0.37781016592142042 1.1595211188730441 -0.58844251073136622 -0.6016262012885677 -0.21197443608582642 0.51239049691657224 -0.36354294840601231 0.68581428096068575 0.14086165637560361 1.2079677478554323 0.46224305002469485 -0.1194740664380072 0.056309529951314878 -0.077712377438660385 -0.57198300930536528 1.1538384980030274 0.12069454276934266 -0.27065775561332706 1.6959566040862377 0.2988133688043389 -0.72907477160101963 -0.1990895862270653 -0.51406693754877364 1.1270589213901097 -0.32494610767303544 -0.26116937413331004 -0.37207025160905816 -0.67731952967227727 0.48999639206368073 -0.61182099681034274 -0.2473258605026282 -0.59808238904170119 -0.49663226097440111 0.11038914022183484 1.4319506486256919 -0.082741766677127557 -0.63409419588378224 -0.46660918854026179 0.9943791112592143
leaf_count=75 560 28 88 443 619 200 152 117 976 1727 1373 167 301 690 150 163 760 196 90 60 750 336 161 1752 97 839 1771 134 825 877 178 68 575 139 108 103 1030 350 45 220 62 1199 2266 193 107 260 1301 780 183 72 59 610 494 62
internal_value=0 17.378567361724055 28.467667385985962 6.6091385833165956 -7.5473385195639864 37.837713887285638 11.626722934046555 43.98480079427307 47.060175974352831 -5.3355661353161477 -3.6281053464152757 15.357452712114844 -1.8827803742648557 29.214102758778086 31.500154643967036 18.64547873782557 20.627443533178354 -8.2882280989399337 -10.616186743924116 -8.8289737271961855 6.1946405085156382 -0.82074593603353541 12.661751343276643 1.8025387876857157 26.47928811422338 10.650167514038667 -4.0457192649122318 8.865121033957136 -2.3926666032288684 -11.968855440278762 18.63123019936338 5.3920833676432567 -3.622138459222906 29.90769826355627 -0.68254807194054035 -12.41382522818243 -6.8211363296472545 -5.5795029268977974 14.775880326005749 -10.483028581255269 1.5199775689309187 -8.0494188355929541 -12.958543769635288 7.8755963660234238 -8.0488371337138336 -6.7686332483802527 -11.25950399795442 -10.474923330349668 0.61586390909022137 24.849133007110112 -6.4320098682719316 -11.600823428302979 -8.45918999515286 17.489234833750459
internal_count=26941 8137 4009 4128 18804 2338 2464 1365 1176 10928 6924 1671 5551 973 840 1075 912 4004 7876 3393 1389 1664 1345 2053 326 1006 3498 884 1328 4483 339 336 818 236 933 4026 2775 1380 133 2575 505 1395 3143 261 457 350 1861 883 243 189 395 1229 714 90
shrinkage=0.05


Tree=6
num_leaves=55
num_cat=0
split_feature=4 6 6 3 3 6 6 4 3 6 4 4 4 4 4 6 3 3 3 3 4 3 6 4 3 6 3 3 4 3 4 4 6 6 6 4 2 6 6 6 6 2 6 2 3 4 4 1 6 2 2 1 2 3
split_gain=481638.36459821858 336858.62708779454 88244.071647148172 72978.176014594443 74408.600101906923 53447.224952424527 48130.524960932409 39519.578958637467 15649.689606576256 15383.883282208408 15294.042154425086 14626.319174710703 12661.681311342603 11320.295521240856 11301.640264366924 9704.8852258273982 8623.9661495874152 7671.334819425967 7228.4647771736491 5650.7421081219727 5143.2552933035768 4268.2107086696196 4196.3655437633461 3456.9284339067544 3439.4565171850409 3053.1214682706122 2617.7208392362741 2452.7187088971559 2294.5302544292026 2269.5870086248469 2208.9500203739444 2208.05271336643 1844.270340593037 1637.4313031899223 1517.1805925282331 1469.2840010122782 1411.4852296644133 1364.4923314913831 1139.4321763421285 989.06469837283237 984.22449771450374 914.95414104537338 894.87500661782542 848.40936931962165 792.02317714058154 607.33230775440461 868.95405783966999 538.95547245377838 532.53816380058652 410.60211043695108 402.00997142936103 363.00154651044613 341.81126619018318 279.82253379625035
threshold=9.5 20160713728 20160906240 9.9999996826552254e-21 5.5 20170517504 20160123904 1.5 9.9999996826552254e-21 20160119808 1.5 18.5 8.5 21.5 17.5 20170318848 5.5 1.5 9.9999996826552254e-21 5.5 7.5 5.5 20160408576 9.9999996826552254e-21 9.9999996826552254e-21 20160730112 9.9999996826552254e-21 5.5 18.5 5.5 2.5 9.9999996826552254e-21 20170523648 20170218496 20160713728 18.5 27.5 20160115712 20160416768 20170312704 20160820224 23.5 20160904192 6.5 1.5 8.5 2.5 10.5 20161209344 27.5 4.5 3.5 13.5 1.5
decision_type=2 2 2 2 2 2 2 2 2 2 2 2 2 2 2 2 2 2 2 2 2 2 2 2 2 2 2 2 2 2 2 2 2 2 2 2 2 2 2 2 2 2 2 2 2 2 2 2 2 2 2 2 2 2
left_child=2 6 9 14 5 15 21 17 35 45 31 36 18 -7 33 -5 22 39 50 -20 30 24 -10 32 -2 -13 -14 -25 -18 -28 -12 34 -19 47 -11 51 -6 -26 -22 48 41 -16 -42 -41 -33 46 53 -3 -4 -37 -9 -8 -35 -1
right_child=1 3 7 4 11 13 8 12 16 10 20 25 26 -15 40 -17 28 23 19 -21 38 -23 -24 27 37 -27 29 -29 -30 -31 -32 44 -34 52 -36 49 -38 -39 -40 43 42 -43 -44 -45 -46 -47 -48 -49 -50 -51 -52 -53 -54 -55
leaf_value=-0.5710349396273896 -0.4542734227319799 -0.18874791965092699 -0.037820399113190482 0.39012071283686345 -0.026268373576660876 0.88256413573833603 -0.37915268136175717 -0.49194564694788917 -0.010437186293126436 -0.12996055857061198 -0.33147031870361776 0.86720633181658668 -0.21059380547797427 0.4014222700725979 -0.24610357458392779 0.54409638835813767 -0.23563722533978182 0.27272807046940606 -0.16183877116718987 -0.33178608231567064 -0.36654966033498448 -0.50234744543014676 0.11022619987881221 0.17514142483007164 -0.27424503429405073 0.26492024734770536 0.12383516251191783 -0.12843631733031499 -0.026173939098729393 -0.16528534928773658 -0.4618745992651791 -0.35650953776328953 0.56487649612956581 -0.082286659481688451 0.097257326100952932 -0.17927365603559103 -0.23763490962711248 -0.098612905509215754 -0.2412985752620127 0.29297584008712035 0.53662912011146546 0.19521180028500765 0.19577978294500975 -0.021836712352993073 -0.19759349956382974 -0.45638173329208398 -0.59810809013787192 -0.059724137989374308 -0.20736980016032855 0.03602027177810669 -0.36193092327254517 -0.27776309597428162 0.02463300626203058 -0.47620398156918009
leaf_count=111 269 365 78 4639 771 879 147 67 1301 313 389 22 94 142 24 1313 352 379 3093 581 300 277 1615 320 1285 483 419 84 208 81 1966 111 63 117 96 194 88 121 460 26 20 23 518 121 267 139 751 104 114 25 528 221 207 260
internal_value=0 3.5515235308644191 -5.0263740180595917 7.1928187356058677 8.307099947517969 9.6284078084863047 -2.3296373858543133 -2.4341903843957913 -0.3689471821912933 -8.0628889544141646 -7.0816024267260289 1.5523494236673778 -3.6960391395997449 16.312944910172501 0.45133654133069323 8.4817491423536424 0.43756070647172207 2.7441813426563821 -4.2979382472660355 -3.7742788951852089 -8.0767233313134543 -6.4107256530074128 1.1278225887306188 4.3547934575400475 -5.8093920161119144 5.8231690601547168 0.62973070994132396 2.2404260044493296 -3.1567315232906759 1.539952792007476 -8.8066871858263216 -3.1428456061544532 6.287382713306223 -2.0083936415283858 -1.5325648668415681 -5.1447928738312276 -0.95843511233507406 -5.1826035652129487 -5.8147958610795047 -1.2752223422745337 3.7856374558730002 -0.60281463125918777 4.1690152404365932 0.67688838742217239 -4.8851864060988186 -11.099352103533205 -11.343620128345256 -3.2027420479097346 -2.7698071196985743 -3.0939344727353419 -7.5314247338962153 -6.3652765418747039 -0.27953746068624802 -10.091531725424641
internal_count=26941 15730 11211 9715 8337 6973 6015 6048 4063 5163 3902 1364 4863 1021 1378 5952 3476 1185 4269 3674 3115 1952 2916 846 1675 505 594 404 560 500 2355 787 442 793 409 587 859 1406 760 339 585 47 538 147 378 1261 1122 469 192 219 595 368 324 371
shrinkage=0.05


Tree=7
num_leaves=55
num_cat=0
split_feature=5 6 4 4 6 4 6 3 3 5 6 4 3 3 6 3 3 6 5 6 4 4 5 4 6 3 3 3 3 5 6 6 6 4 4 4 4 3 6 6 6 6 6 3 4 4 5 3 4 4 6 6 6 6
split_gain=3189627.4401886123 848533.89311047737 412910.83441821672 141795.6774253296 100631.05407697428 98219.453044721507 93730.320788977901 62216.761953863781 81840.566366227577 43269.505884755898 88306.374330640654 41137.811795167276 37836.509320894722 43013.371394401183 25771.16216263501 20764.302529506036 27138.658892661857 17698.588826178478 15742.965136492159 27535.371469914331 14497.635128191199 13872.183687995916 11036.199687595683 9207.6204659065406 8842.0753707962085 8549.554353065716 8531.0073959561123 8430.0738565684678 10768.792883083941 7375.4760253588902 8244.9009251580574 6502.2054546133422 5655.2818245484668 5143.7754968944355 4897.9626502416504 4845.4036033128195 4773.902051623737 4371.2915752660083 3396.3251995563332 3140.7162640045735 2859.3541062264703 2718.9184096619138 2510.9248885666311 1738.4284284306309 1636.3743092518152 1459.5606093310635 1199.3827002204489 1142.1552258392458 1080.7843711689275 1030.3981993982452 997.6536636327055 909.38953547107667 765.00135162018705 830.28794938110514
threshold=1.5 20160918528 9.5 9.5 20170507264 10.5 20160508928 5.5 9.9999996826552254e-21 3.5 20170103808 1.5 9.9999996826552254e-21 5.5 20160119808 5.5 9.9999996826552254e-21 20160165888 2.5 20170130432 1.5 7.5 2.5 3.5 20160502784 9.9999996826552254e-21 1.5 9.9999996826552254e-21 5.5 3.5 20160713728 20160115712 20170116096 9.9999996826552254e-21 9.9999996826552254e-21 2.5 7.5 9.9999996826552254e-21 20170114048 20160103424 20160926720 20160629760 20160119808 1.5 17.5 1.5 2.5 9.9999996826552254e-21 17.5 2.5 20160713728 20170107904 20170621952 20170304512
decision_type=2 2 2 2 2 2 2 2 2 2 2 2 2 2 2 2 2 2 2 2 2 2 2 2 2 2 2 2 2 2 2 2 2 2 2 2 2 2 2 2 2 2 2 2 2 2 2 2 2 2 2 2 2 2
left_child=1 3 11 20 7 18 17 8 -4 10 14 26 48 -14 46 16 -8 37 19 40 31 23 -16 -13 39 -19 51 44 -29 30 42 -1 -23 -32 -28 43 -26 -5 -9 -22 45 -33 -20 -21 -12 -2 -7 -37 -6 -42 -17 -3 53 -11
right_child=5 2 4 6 12 9 15 38 -10 52 27 21 13 -15 22 50 -18 25 29 35 24 32 -24 -25 36 -27 34 28 -30 -31 33 41 -34 -35 -36 47 -38 -39 -40 -41 49 -43 -44 -45 -46 -47 -48 -49 -50 -51 -52 -53 -54 -55
leaf_value=-0.12907324228684108 -0.42555030213425993 0.58853430271148688 0.94705746003892277 -0.13238314720091679 1.148676700062222 -0.48074706194715366 0.42635753727117126 0.76596410848638596 1.9270853734749147 -0.47985061958200914 -0.29562037222126802 0.75515726327089372 2.8765198940201735 1.3290057989267203 -0.34189571090933613 0.29516950554859184 1.1621383542040795 0.093655032282456377 -0.68860217996729101 -0.2103666184761096 -0.3370463960109249 0.680347233155283 -0.19484816654672546 0.42542554655040687 -0.016529401810641619 0.55633074432945162 1.6529513038437942 0.11264568791809229 -0.19017837946558164 -0.65394781002609748 -0.20571750446493403 0.2871475277845163 1.1001866465706505 -0.46975576066367752 1.1904347685586036 -0.39570648617083481 0.30826610882810301 0.20079818700098429 1.1186809719043926 -0.1215614620603418 -0.31092029745556571 0.62535706992599782 -0.55271468182382255 0.090932931398090569 -0.08280075279877365 -0.53574009622430718 -0.58350912272531008 -0.21376522960056207 1.5766170082092286 -0.43861422237054803 0.54210601348516552 0.94575676341210646 -0.35222355459557209 -0.56536260796297466
leaf_count=75 368 25 256 118 36 576 151 136 1269 451 189 314 329 52 2542 78 737 117 492 64 252 146 2562 650 470 681 116 1907 347 1117 203 183 178 2019 113 101 149 594 137 514 219 88 1100 190 173 1639 560 591 25 567 86 62 61 766
internal_value=0 16.523674109688329 27.315407157889648 6.8606361788041301 36.085710658026592 -7.174754842231164 11.584637635777893 32.76249678103094 35.251384245372208 -5.0608144692958241 -4.2758551662844164 15.067601771164741 49.604123668972726 53.306212423980391 -6.3204337058717215 18.831184292183799 20.740449440908861 6.5360501638977535 -9.6456512366171765 -8.0981767881141327 -0.13121346461977798 12.559160016383109 -5.3616767234492286 10.656555724581432 -1.5776960567419924 9.7698966332181421 25.291883353945575 0.60112116667612914 1.3205273219631339 -10.819045469623237 -10.157189075702457 5.6588974893954447 18.219995008039945 -8.912669074584576 28.494452409869197 -3.4352603047361585 1.233047863146552 2.9115986435077668 18.859370835534818 -3.8490413392628922 -9.6775247985958952 7.9394405710741163 -11.894201288317991 0.3002986915878893 -3.878275170387155 -10.310717776751838 -10.628088317037573 -4.806404791826199 26.48124144507236 -8.0607076139152571 8.4932120234773656 16.86213262053742 -10.500250766219947 -10.673465688268278
internal_count=26941 8137 3844 4293 2240 18804 2562 1798 1525 10134 8856 1604 442 381 6240 1052 888 1510 8670 3739 1731 1288 5104 964 1385 798 316 2616 2254 4931 3814 346 324 2222 229 946 619 712 273 766 2793 271 1592 254 362 2007 1136 692 61 786 164 87 1278 1217
shrinkage=0.05


Tree=8
num_leaves=55
num_cat=0
split_feature=4 6 6 3 3 6 6 4 4 3 6 4 6 4 4 3 4 3 3 4 4 6 3 4 6 3 3 3 3 4 4 6 3 6 4 2 6 6 6 6 2 2 2 3 4 4 6 2 6 2 1 2 2 4
split_gain=393716.6372925067 277771.06454182789 72108.912296025112 60418.482959899178 61147.823981824913 44643.371395648806 38763.559061678665 32681.142133861264 13128.34885604073 12791.76988968952 12698.33804859221 12739.55990467497 11155.2140751892 10932.069186373468 9862.5687753370094 8332.1296936653307 6677.2928836931242 6362.0756579355293 6336.1684455785689 5132.5329011777358 4588.0260181764315 3620.2902006511372 3551.4790778391834 2852.6209896947148 2781.3281883987402 2659.9605808519773 2309.1027373748643 2064.7239468170401 2045.7536990990632 1959.133026850217 1944.360640966881 1622.8048579814931 1604.8064271407493 1521.5894088708565 1286.951387398356 1236.1321861939482 1214.303621565889 824.24054535087703 821.00833229190812 816.19711760804694 810.59409153387708 724.49266339045062 723.46465137987559 709.41282496847634 553.91817234487098 730.03114664979512 524.19629507669742 480.9864073214585 462.88585958440694 378.91111628637532 367.84568096417934 323.11156331848906 279.70774289525929 268.35562727127035
threshold=9.5 20160713728 20160906240 9.9999996826552254e-21 5.5 20170527744 20160119808 1.5 18.5 9.9999996826552254e-21 20160119808 1.5 20170318848 8.5 17.5 5.5 19.5 9.9999996826552254e-21 1.5 2.5 8.5 20160408576 5.5 9.9999996826552254e-21 20160730112 9.9999996826552254e-21 9.9999996826552254e-21 5.5 5.5 18.5 9.9999996826552254e-21 20170523648 1.5 20170218496 18.5 27.5 20160713728 20170312704 20160820224 20160904192 23.5 13.5 6.5 1.5 8.5 2.5 20160416768 3.5 20161209344 19.5 5.5 4.5 13.5 17.5
decision_type=2 2 2 2 2 2 2 2 2 2 2 2 2 2 2 2 2 2 2 2 2 2 2 2 2 2 2 2 2 2 2 2 2 2 2 2 2 2 2 2 2 2 2 2 2 2 2 2 2 2 2 2 2 2
left_child=2 6 10 14 5 12 22 18 35 34 44 30 -5 17 33 21 -7 51 37 -19 32 -11 25 31 -10 53 -15 -25 -28 -17 36 -20 -13 47 50 -6 -12 48 40 -40 -16 -27 -39 -32 45 -1 -22 -3 -4 -36 -8 -9 -35 -2
right_child=1 3 7 4 8 16 9 13 24 15 11 20 -14 26 38 29 -18 19 23 -21 46 -23 -24 27 -26 41 28 -29 -30 -31 43 -33 -34 52 49 -37 -38 42 39 -41 -42 -43 -44 -45 -46 -47 -48 -49 -50 -51 -52 -53 -54 -55
leaf_value=-0.45668676434702316 -0.45389380268752577 -0.3262928016282417 -0.031616402474733504 0.35249693627706341 -0.02826527832740321 0.88127873858406613 -0.26946215725270234 -0.45051112584213709 0.82252865271134812 -0.012097999423563221 -0.11231123474649728 -0.44936082937488769 0.50765442717241349 -0.19382526509939357 -0.22875757093230883 -0.22897184187364161 0.55788388239840669 -0.026261992184197381 0.24729745866126313 -0.19499312311510308 -0.27694521717525816 0.0983379480048968 -0.4715108539241244 0.1604585993755609 0.24767551490608952 -0.27783733193428461 0.1207497452921401 -0.11807465411367871 -0.15374381369278756 -0.039825206969377649 -0.32813685257826841 0.52134405270455375 -0.36408170744782653 -0.074173033848786971 -0.1949805441655611 -0.2260672054507516 0.090965426137942507 0.27113983496450461 0.50584802508354187 0.18032718860907446 0.18662771764008895 -0.20413022282065629 -0.019568825984173571 -0.17773669131016465 -0.40825414932031423 -0.54241624727073845 -0.15681518980004686 -0.13845625638409897 -0.18968945816649418 -0.060305945835141254 -0.39235734777017073 -0.33395090144128492 0.022547046847389517 -0.35216867179191169
leaf_count=371 160 37 78 4639 771 568 291 67 22 1373 313 767 1544 94 24 368 222 526 379 3148 148 1615 251 320 483 655 419 84 81 218 111 63 1965 117 133 88 96 26 20 518 23 679 121 267 139 751 235 432 114 86 77 528 207 109
internal_value=0 3.2110717952927281 -4.5444710589092168 6.5176252929785692 7.531497490082514 8.7292937569244202 -2.1294381348848193 -2.201227309028067 1.4081592432433558 -0.43490520242321407 -7.2893748356439048 -6.3978441609066126 7.8248478827219907 -3.3487195615821759 0.38362492486856153 0.27566703911881141 15.808013807802427 -3.9079994417786552 2.5078484919598081 -3.416723785820535 -7.306065958333658 0.95184225448029469 -5.9325403635648302 3.9716050356415145 5.4543724379917187 -5.3848692123207051 0.67075149659757261 2.0509148937935877 1.525635774731636 -3.1721342296527109 -2.8030399690575072 5.7271679707242349 -7.7604707998939819 -1.914172577076271 -4.7612854260538766 -0.9705807606541097 -1.2919675093599592 -1.1450660683786096 3.4984170941715567 3.8485666989283049 -0.50967838155462386 -4.8064148982336139 0.6369806482982473 -4.4380363606350128 -10.048100206639077 -10.281379523584137 -4.0647238509111867 -3.0654983547196459 -2.5094455858343281 -2.8418925767892027 -5.9035328010238866 -6.9415234081486252 -0.24759297919126205 -8.2534865171243492
internal_count=26941 15730 11211 9715 8337 6973 6015 6048 1364 4161 5163 3902 6183 4863 1378 3574 790 4269 1185 3674 3115 2988 1854 846 505 1603 594 404 500 586 787 442 2732 793 587 859 409 339 585 538 47 1334 147 378 1261 1122 383 469 192 219 368 595 324 269
shrinkage=0.05


Tree=9
num_leaves=55
num_cat=0
split_feature=5 6 4 4 6 6 4 5 6 6 4 6 6 5 6 4 6 5 5 6 4 6 4 6 5 6 6 4 4 4 4 4 6 4 4 2 6 6 4 6 6 4 6 6 5 6 6 5 6 1 2 2 2 6
split_gain=2882997.3550932538 741767.43576531741 359657.82335394248 117341.20384131977 94490.562691411469 76792.334823471319 74575.94852897746 42231.597052632831 71860.37579891074 37089.595891137375 35728.944250071887 19551.608233299805 14876.597644031397 14658.198439483647 22258.949458403629 12711.028565168697 12690.154343027098 9979.2234533033479 9923.3872668477998 9233.1912620908697 9139.7356708278239 7437.8187598988225 7241.35532516276 6595.2860855604595 9132.8986437854019 6107.9529811150915 5915.2016459512524 5903.9561450613264 5297.5226818995143 4762.8457570454921 4586.4028927179752 4494.423430068884 4163.3570286448812 4142.001143613672 3950.9267006994196 3747.997819565644 2933.3875170945394 2831.0596314338363 2760.6211546195264 2632.6478585206323 2627.1509672580723 1901.5266068625351 1809.5744429609622 1520.5002636659701 1082.6067803347687 946.7085935275536 909.01884923342095 898.06607381228241 660.3581346887222 842.0493194271985 350.30422853000346 252.56885792085086 254.71261849800612 250.80543034567086
threshold=1.5 20160914432 9.5 9.5 20170107904 20160508928 10.5 3.5 20170103808 20170507264 1.5 20160119808 20160103424 3.5 20170208256 2.5 20170116096 2.5 2.5 20160619520 7.5 20160119808 21.5 20170314752 2.5 20160416768 20160128000 6.5 9.9999996826552254e-21 1.5 17.5 10.5 20161221632 2.5 8.5 1.5 20170107904 20160705536 7.5 20170107904 20160216064 8.5 20160717824 20170116096 2.5 20160513024 20151223296 2.5 20170304512 5.5 26.5 7.5 3.5 20160103424
decision_type=2 2 2 2 2 2 2 2 2 2 2 2 2 2 2 2 2 2 2 2 2 2 2 2 2 2 2 2 2 2 2 2 2 2 2 2 2 2 2 2 2 2 2 2 2 2 2 2 2 2 2 2 2 2
left_child=1 3 10 15 30 12 13 8 11 31 28 44 46 14 26 21 34 33 -13 45 -18 53 -11 39 -25 41 47 -27 36 -28 35 -6 -32 -16 -12 -4 -3 -23 -19 -10 -14 -17 -21 -30 -8 -7 -5 -2 51 -50 -51 52 -9 -1
right_child=6 2 4 5 9 19 7 48 23 22 16 18 40 -15 17 25 20 38 -20 42 -22 37 -24 24 -26 27 29 -29 43 -31 32 -33 -34 -35 -36 -37 -38 -39 -40 -41 -42 -43 -44 -45 -46 -47 -48 -49 49 50 -52 -53 -54 -55
leaf_value=-0.1628613639738142 -0.53086287560620049 1.1148360041777294 0.52679993510246281 0.12701955459829259 1.3842448082523071 0.91302258318120788 -0.44183463916803406 -0.47993377537008319 0.23226898889072609 2.4048989338973135 0.37201943969582651 -0.33059901151224319 0.31239167623296155 -0.61772756823868014 0.027062761815163507 -0.22768865204843591 0.63739262423032583 -0.43911075653443982 -0.1911620303835781 0.85675576039973445 1.0492316323049953 0.23189138198892276 1.7869133766050691 0.19629726047521226 -0.045739510694088846 -0.098167083425404034 -0.34061248579934889 0.22455728253140986 0.79373798654192973 -0.47121682292283762 1.490684364353422 1.8037664475988171 1.0053685665130616 -0.2163651441948202 0.75910931409973847 1.2247189751574918 1.5562350093728246 0.52211032028111526 -0.24132510897004977 -0.10611460393175004 0.4850755820082383 0.019958793478352683 1.0338747866996905 1.1105194204731992 -0.53946598728120854 0.63048810778322872 -0.050626010798859866 -0.62285808997276515 -0.57395864699831989 -0.48558223401452161 -0.30619608871638776 -0.49223493021268117 -0.33775330138584925 0.020783721185896709
leaf_count=97 516 60 20 418 69 33 576 63 61 388 497 2542 326 1117 239 523 554 666 2562 204 178 270 54 779 780 344 853 241 63 3843 331 854 51 650 76 504 101 122 240 996 679 91 492 95 560 292 87 546 613 182 32 325 63 23
internal_value=0 15.710194808736794 25.674185768682484 6.5612686444302248 33.800160549380927 10.885599055026479 -6.8203502692636526 -4.9783343871408796 -4.2028466661472477 39.055290061650261 14.310830641240271 -6.0472356222599792 6.3562346691142348 -8.9734055114126914 -8.4733737467888162 0.16449467060256864 11.99179637968269 -5.3987201521733468 -5.2121465874092836 17.584267245748798 14.75078536540682 4.3354924020750332 46.587968718951643 0.19661322916752519 1.50402498484671 -1.6166152864565655 -9.431866835072034 0.69568644074293284 23.797788983975831 -8.9498666988045539 25.882664098776466 35.448091831393256 28.517817879222452 -3.0184329280721944 8.4672240628413924 23.961616877153631 27.834769713952674 6.4442924597604696 -7.7343441502152066 -1.7317263423592952 8.5812140623987911 -3.8197040656287258 19.639211786718203 19.684156721151329 -9.7992553703919789 13.183524474934316 1.9283053814885345 -11.563197004480775 -10.352136622758724 -10.882971996119405 -9.1751627504268534 -9.3787422685031085 -8.1768707675593237 -2.5532544530307253
internal_count=26941 8137 3895 4242 2271 2531 18804 10134 8856 1365 1624 6240 1510 8670 7553 1711 1305 1795 5104 1021 732 512 442 2616 1559 1199 5758 585 319 4696 906 923 382 889 573 524 161 392 906 1057 1005 614 696 158 1136 325 505 1062 1278 827 214 451 126 120
shrinkage=0.05


Tree=10
num_leaves=55
num_cat=0
split_feature=5 6 4 4 3 3 6 6 4 5 6 4 3 3 6 6 5 6 3 4 4 5 4 3 3 6 5 3 3 6 6 4 6 6 4 3 4 3 6 4 4 3 4 4 4 4 6 3 6 4 4 5 6 1
split_gain=2601905.1553879054 669635.38908127742 321720.96303715697 108865.37022017868 84160.632703423966 111355.55415096739 76946.28137234319 72539.103563355107 67304.794319038163 38114.015249860793 64853.98814091552 31835.749258224969 18090.633018900466 23283.115976969362 17669.779651200806 13487.487384004162 13327.0190007044 21101.391617054207 13059.105174601165 11648.693590915889 11227.186975449877 8653.5171844638098 8008.9310716348555 7988.5491427815941 7408.3853033590713 6853.2673982477645 6567.1443298379891 6530.0157873730677 8341.3627452952478 5895.1185252358928 5789.9488213115255 5693.1156594956256 4126.5859681844886 4066.5733159371302 4044.6130670403363 3948.1316045172607 3782.0242191064017 3745.5239411036819 2433.8640614211618 2028.3848518435552 1553.3904801348435 1467.2435976094682 1437.2490423246327 1344.4148486366566 1209.6222046683542 1162.6177685126022 1111.0167268923751 994.96179361080794 798.34500647722234 778.98324282739486 767.94276366527265 661.47648470547574 595.97287494625198 759.94935803861881
threshold=1.5 20160918528 9.5 9.5 5.5 9.9999996826552254e-21 20170128384 20160508928 10.5 3.5 20170103808 1.5 5.5 9.9999996826552254e-21 20160123904 20160165888 2.5 20170212352 9.9999996826552254e-21 2.5 8.5 2.5 17.5 5.5 1.5 20160119808 3.5 9.9999996826552254e-21 5.5 20160207872 20160713728 6.5 20170120192 20170320896 1.5 5.5 2.5 1.5 20161002496 8.5 17.5 1.5 8.5 16.5 18.5 2.5 20170120192 5.5 20160826368 3.5 9.9999996826552254e-21 2.5 20170304512 5.5
decision_type=2 2 2 2 2 2 2 2 2 2 2 2 2 2 2 2 2 2 2 2 2 2 2 2 2 2 2 2 2 2 2 2 2 2 2 2 2 2 2 2 2 2 2 2 2 2 2 2 2 2 2 2 2 2
left_child=1 3 11 19 5 22 -7 15 16 10 14 24 13 -9 51 35 17 38 46 25 -20 -16 -4 -17 50 -1 30 43 -29 42 39 -31 40 -26 -32 -5 41 -27 45 -18 -6 -19 -21 -12 -34 -2 -13 -38 -14 -40 -3 -10 -11 -54
right_child=8 2 4 7 32 6 -8 12 9 52 27 18 48 -15 21 23 26 36 20 29 -22 -23 -24 -25 33 37 -28 28 -30 31 34 -33 44 -35 -36 -37 47 -39 49 -41 -42 -43 -44 -45 -46 -47 -48 -49 -50 -51 -52 -53 53 -55
leaf_value=-0.12127958753068623 -0.38808526550552674 0.88881483152508745 0.66640726327896127 0.18992073204446847 0.52793879886952844 1.5365383829435142 2.2321626846483578 0.3662163926300821 -0.42328062656374021 -0.44549026674531123 -0.2954442213272086 0.023231059588389856 0.30071865147434351 1.0477304532335443 -0.31199788706124398 0.50765696988801534 -0.54857564980796525 -0.18115361230605742 0.57718412729596602 -0.29760897550002746 1.0545837824648998 -0.18101590541870297 1.1746653943591647 0.055566940430486413 1.1310507133007051 0.052382424599132865 -0.58684119314035355 0.08202722606605177 -0.18449005880741998 -0.11029720854965144 -0.24995277252527154 0.14955627401609312 0.92934769016128405 1.5742947216275374 -0.4278245336766423 -0.15633855212185729 -0.17867377763396697 0.40181693228420939 -0.28470446017452483 -0.40293643474578861 0.85520818875386162 0.10759243709331304 -0.026154934569909163 -0.1015432551466114 1.1983809599235877 -0.47262052280344524 0.27925631630391179 -0.37153311387488719 0.56464607151778967 -0.38511081046912815 0.59169373387514168 -0.49765466626520016 -0.54526070031606355 -0.43582022731131487
leaf_count=120 560 44 182 617 82 743 855 151 605 451 161 73 127 737 2513 684 1299 59 973 281 141 2531 135 114 150 104 1117 1907 347 521 387 354 111 79 1835 95 557 292 307 293 65 173 59 201 67 1486 101 76 37 521 43 591 613 214
internal_value=0 14.92468524492104 24.511532223654058 6.3405157163280483 32.253050854961785 34.778204324351279 38.174557120167421 10.479782361717429 -6.4793327536434777 -4.7294176555956318 -3.9927043311874502 13.700433885668197 16.854737503871945 18.636847281987936 -5.7448738257482033 6.0384228851965362 -8.5247352454101293 -7.1009426552689741 11.493745721788406 0.21411413025780265 12.752180775341577 -4.9254637065806639 17.657157738502093 8.8614535993102237 22.694783110595957 4.1947583675045204 -9.6043459723494475 0.18678253657214447 0.81994560516225345 -1.4764310766716675 -8.9798106279233441 -0.10335827777534723 17.374069643020629 25.679204367133728 -7.9369013705123201 2.874408124153387 -2.7706909203589651 6.2009250699645939 -8.4042369317815542 -10.435428950767122 13.452995071605761 0.6832265940591179 -5.0100743091254332 -3.7556195534889212 20.612260440762125 -8.9896563594234067 3.4368684249020172 -4.0365816997349446 7.2052650467560788 -6.9576570417390062 14.839237504306881 -9.2006469370200019 -9.8345297064241581 -10.3388231665869
internal_count=26941 8137 3844 4293 2240 1915 1598 2562 18804 10134 8856 1604 1052 888 6240 1510 8670 3739 1288 1731 1114 5044 317 798 316 516 4931 2616 2254 1215 3814 875 325 229 2222 712 865 396 2874 1592 147 232 340 362 178 2046 174 633 164 828 87 1196 1278 827
shrinkage=0.05


Tree=11
num_leaves=55
num_cat=0
split_feature=5 6 6 3 3 6 5 6 6 3 3 6 3 3 6 6 5 6 3 3 3 6 6 3 6 6 6 6 6 3 3 6 6 5 1 6 2 6 2 1 6 6 3 6 2 2 6 2 2 6 3 6 3 2
split_gain=2348219.3575190832 605360.79504435509 94449.978863636963 57196.612995788688 65342.796170539455 57040.526073649409 44580.511034485418 72583.909564578498 30992.87590840389 24957.314363247249 24927.557757023955 18946.867249045288 16225.628491070878 17366.890457722795 12982.87277506536 10000.268414424063 9058.8552286714767 12978.315191212117 8329.9165611224598 9186.6053800460941 6135.8383610085602 5719.1178195457542 5449.5655745705953 4885.3129707064363 4797.3333642014768 4706.3917008774588 3559.7756335310278 2782.4331271195551 2722.0502743085817 2521.2880164316721 3489.3236803579593 1257.0460664984384 2414.5159929446545 1122.5007397818554 1471.4145443620073 888.8344961674843 797.84337050264367 760.14412450087548 642.09441558006802 625.93622042809147 705.59062268899288 598.81547988345096 450.56330425558554 356.14747926330892 271.84868050509272 265.02900862487149 288.49775979002879 242.38215430279524 188.72236434875026 171.96304859829388 171.05741908765776 137.41442862208351 106.99809835203996 100.81022474014765
threshold=1.5 20160906240 20170116096 9.9999996826552254e-21 5.5 20160424960 3.5 20170103808 20170517504 9.9999996826552254e-21 5.5 20160128000 9.9999996826552254e-21 5.5 20160103424 20160619520 2.5 20170417152 9.9999996826552254e-21 5.5 9.9999996826552254e-21 20170501120 20170611712 5.5 20161016832 20160822272 20170329088 20160726016 20161221632 9.9999996826552254e-21 4.5 20170107904 20161223680 2.5 11.5 20160615424 28.5 20170525696 4.5 2.5 20170628096 20160721920 9.9999996826552254e-21 20170529792 20.5 10.5 20170109952 28.5 7.5 20151120896 1.5 20170218496 9.9999996826552254e-21 26.5
decision_type=2 2 2 2 2 2 2 2 2 2 2 2 2 2 2 2 2 2 2 2 2 2 2 2 2 2 2 2 2 2 2 2 2 2 2 2 2 2 2 2 2 2 2 2 2 2 2 2 2 2 2 2 2 2
left_child=1 5 9 38 8 14 7 11 -5 31 24 33 41 15 29 -14 17 23 53 -20 -19 26 -23 -9 -11 27 -18 -13 -27 49 -31 32 -3 42 -35 -15 -12 -6 -4 45 43 48 -2 -41 -43 46 52 -40 -7 -1 -48 -47 -8 -16
right_child=6 2 3 4 37 12 39 16 -10 10 36 25 13 35 18 -17 21 20 19 -21 -22 22 -24 -25 -26 28 -28 -29 -30 30 -32 -33 -34 34 -36 -37 -38 -39 47 40 -42 44 -44 -45 -46 51 50 -49 -50 -51 -52 -53 -54 -55
leaf_value=-0.32431918150041161 -0.51574388139219163 0.42565004133000112 0.98129279184341434 1.4571219743048911 0.73498838845853776 -0.030006859203179678 -0.58032523852128248 -0.10721265287217896 1.9481116924073303 0.89325718919501496 0.54079989802973405 -0.32909665523522263 0.46368400777197061 0.059025199031553323 -0.0651663753685231 0.74426090468897899 -0.1750433461487545 -0.21462655844166878 0.31698229328001898 -0.038357140089766206 0.14272544198806 -0.37928713197536013 -0.10200201537042973 -0.37715420700686497 1.1051234907238849 -0.25608207536727362 -0.0090498014051165129 -0.43143336852947045 -0.40738684632544858 0.074459214819639102 -0.16857402097709753 0.72702958287188313 -0.096896809935569761 -0.46651517764299988 -0.5832468857507751 0.25062343352792427 0.25418034240051551 0.93009031359106309 0.73157747651429006 -0.54631455513052829 -0.31143809395867428 0.12605319335017093 -0.42667190792014353 -0.49163794894889001 0.29195307696173928 -0.50882795607459907 -0.2752908748308463 0.57151878980489879 0.096730440009792307 -0.20160391318037157 -0.41222064025033789 -0.44976910201437548 -0.46585245521445029 -0.15682253752731615
leaf_count=41 166 191 25 1171 227 39 26 1232 443 380 241 4874 544 97 180 763 1185 140 1050 220 846 561 259 194 900 3268 444 769 327 467 216 27 25 737 426 161 27 64 262 1166 37 43 981 400 58 388 28 26 119 94 123 132 95 36
internal_value=0 14.178450816344821 22.930843690066904 27.292484788774999 29.350881426744262 5.6783677178099765 -6.1553660865123341 -5.5671199257539774 31.837711420662636 17.529325009478097 19.008327108728448 -6.931667066674394 9.8561974587695058 11.069533387983379 2.3709191728836836 12.54958179809706 -2.3254432371407332 -0.94988307427687513 4.132130258505434 5.1085486161302569 1.8397161407721121 -3.6802211517293921 -5.8341122687589833 -2.8787363884692323 20.844513649150031 -6.2911476056815534 -2.5960034009839874 -6.8608518802609879 -5.3968941365711922 -0.82854253033626923 -0.048009815820837791 8.1075338586980905 7.3034016338556453 -9.4931903483418676 -10.18546619523166 3.5717687677563159 10.238480945520882 15.557948058413476 14.764543589633018 -10.185650534063019 -10.544992643022121 2.5246502417049812 -8.7912576456977263 -10.646972552512798 4.4264486688788578 -9.4583457352480647 -8.6585090215427467 14.342554679282735 1.3089436521824402 -4.77745989340323 -7.7365938074245362 -9.8767218624170017 -9.808998255690268 -1.6088480478997722
internal_count=26941 8137 4009 2218 1905 4128 18804 16409 1614 1791 1548 11548 1824 1565 2304 1307 4861 2412 1486 1270 986 2449 820 1426 1280 9238 1629 5643 3595 818 683 243 216 2310 1163 258 268 291 313 2395 1603 259 1147 1566 101 792 272 288 158 135 151 520 121 216
shrinkage=0.05


Tree=12
num_leaves=55
num_cat=0
split_feature=5 6 6 3 3 6 5 6 6 3 3 6 3 3 6 6 5 6 3 3 3 6 6 6 6 6 6 6 3 3 3 6 6 5 6 6 2 6 2 6 6 6 3 6 2 6 2 2 6 3 6 6 3 3
split_gain=2119268.0097768414 546338.12837824412 85241.114372656681 51619.946866655955 58971.879154537572 51479.076364053602 40233.911964317434 65506.979030112328 27971.074118886376 22523.97607815318 22497.120510799112 17099.548420225678 14643.630053622386 15673.619028723886 11717.042468217463 9025.2418864186038 8175.6168242929161 11724.239878370498 8348.0394980760284 7517.7497401506043 8290.9113703022776 5161.5039288138032 4918.2329549531714 4329.5931737328647 4247.5183497908874 3284.1775967430876 2511.1457251561515 2456.6503742998466 2275.4624576771207 3149.1146893609057 2260.0987573706916 1134.4842407266751 2179.1006940682892 1013.0569689419353 1435.181752572098 802.17314634852892 720.05369594246804 686.03022024164238 579.49016239170305 567.32865629150183 641.56448444712441 540.43096456156854 439.64402785056154 338.82707016027416 245.34343258623562 231.12272781049251 192.53089456242742 170.32193964589524 169.98973317195851 217.29920603131904 155.19665365703941 124.01655970991851 96.565772986172306 93.698606092759292
threshold=1.5 20160906240 20170116096 9.9999996826552254e-21 5.5 20160424960 3.5 20170103808 20170517504 9.9999996826552254e-21 5.5 20160128000 9.9999996826552254e-21 5.5 20160103424 20160619520 2.5 20170312704 5.5 9.9999996826552254e-21 5.5 20170501120 20170611712 20161016832 20160822272 20170107904 20160726016 20161221632 9.9999996826552254e-21 4.5 5.5 20170107904 20161223680 2.5 20160119808 20160615424 28.5 20170525696 4.5 20170304512 20170628096 20160721920 5.5 20170529792 20.5 20170318848 10.5 7.5 20170109952 1.5 20151120896 20170218496 9.9999996826552254e-21 1.5
decision_type=2 2 2 2 2 2 2 2 2 2 2 2 2 2 2 2 2 2 2 2 2 2 2 2 2 2 2 2 2 2 2 2 2 2 2 2 2 2 2 2 2 2 2 2 2 2 2 2 2 2 2 2 2 2
left_child=1 5 9 38 8 14 7 11 -5 31 23 33 41 15 28 -14 17 30 -19 -16 -21 25 -23 -11 26 -18 -13 -26 50 -30 -9 32 -3 42 -35 -15 -12 -6 -4 46 43 47 -2 -41 -43 -40 48 -7 52 -50 -1 -48 -8 -45
right_child=6 2 3 4 37 12 39 16 -10 10 36 24 13 35 19 -17 21 18 -20 20 -22 22 -24 -25 27 -27 -28 -29 29 -31 -32 -33 -34 34 -36 -37 -38 -39 45 40 -42 44 -44 53 -46 -47 51 -49 49 -51 -52 -53 -54 -55
leaf_value=-0.3081032215095148 -0.4052119047595687 0.40436753687590204 0.93222814369201668 1.3842658982966112 0.69823895882864362 -0.028506514964959564 -0.55130897210194518 -0.15243063588597761 1.850706160606703 0.84859433080804969 0.51375990625300838 -0.31264182334252938 0.4404998185654061 0.056073940905367908 -0.076420282734626976 0.70704786535596598 0.26382529704638252 0.087985283008193541 -0.26866873107414618 0.30113317913703974 -0.03643928286577152 -0.3603227769507763 -0.096901915535963654 1.0498673129032057 -0.24327797332121404 -0.13632931078150087 -0.409861697641205 -0.38701750578227756 0.070736257509553785 -0.16014531898415751 -0.37711347430944442 0.690678126309757 -0.092051973015069968 -0.50185175478713373 -0.31281600057541792 0.2380922652150487 0.24147131818312184 0.88358580768108375 0.62032394612779718 -0.52063420444064679 -0.29586619074280196 0.11975053597328277 -0.49503243469362018 -0.50538590770018732 0.27735542490012571 0.71418946503392633 -0.48338656530129848 0.091893921344846252 -0.2615263339838878 -0.4122386517321191 -0.191523715742725 -0.42728064537584559 -0.44255983402854526 -0.45177772033282304
leaf_count=41 989 191 25 1171 227 39 26 805 443 380 241 4874 544 97 216 763 53 1289 188 1050 220 561 259 900 3268 1576 769 327 467 216 130 27 25 1052 111 161 27 64 101 1125 37 43 158 114 58 187 388 119 28 164 94 132 95 286
internal_value=0 13.469528425776085 21.784301738381103 25.927860987487328 27.883337862465012 5.3944494019792062 -5.8475978124875212 -5.2887639545189264 30.245826469071883 16.652858737533748 18.057910727620971 -6.5850837448057646 9.363387716897897 10.516056863049538 2.2523732360019091 11.922102870178774 -2.2091710851026742 -0.90238893194707914 0.85177127089535531 3.9255237522576389 4.8531211946995594 -3.4962101024204753 -5.5424066827609773 19.802287926874122 -5.9765902439101684 -2.4662032295664473 -6.5178092945510349 -5.1270494642811251 -0.78711535465336591 -0.045609272141036841 -3.673399220287481 7.7021571710521792 6.9382315016593097 -9.0185309141882382 -9.6761929853815314 3.3931803850731415 9.726556940143233 14.780050539222779 14.02631642891707 -9.6763680736176543 -10.031791940412548 2.3984177797267745 -8.3516948297960845 -10.131618380180148 4.2051262754571193 13.625426980573037 -9.0098949884632464 1.2434965261269975 -8.3902296321392171 -7.8051954412100413 -4.5385868684009267 -9.3828858664044397 -9.3185483483243576 -9.3411210746504363
internal_count=26941 8137 4009 2218 1905 4128 18804 16409 1614 1791 1548 11548 1824 1565 2304 1307 4861 2412 1477 1486 1270 2449 820 1280 9238 1629 5643 3595 818 683 935 243 216 2310 1163 258 268 291 313 2395 1562 259 1147 1525 101 288 833 158 313 192 135 520 121 400
shrinkage=0.05


Tree=13
num_leaves=55
num_cat=0
split_feature=5 6 6 3 3 6 5 6 6 3 3 6 3 3 5 6 6 3 3 3 3 6 6 6 6 2 6 3 3 3 6 6 6 2 6 5 2 6 6 2 6 6 6 6 2 2 6 2 1 6 2 6 3 2
split_gain=1912639.368369791 493070.16125742998 76930.101159535581 46587.001202091575 53222.118188143009 46532.27820696868 36311.106179681607 59443.587872372766 25243.889882248593 20327.888718975417 20303.651929045038 17538.31984265038 14276.31384183577 15694.135369927419 11466.558246933173 9375.6964209353901 9212.509154999927 9136.6092924659115 10487.786053556294 5896.4599896200089 6292.8409892217751 5714.6893266500556 5493.558522602234 4438.7052571568784 3907.4587362235761 3332.0369208423031 2266.3090826263651 2053.6047928105895 2842.075802804708 1640.171563025855 1023.8720143555565 1966.6383935986469 933.18345822303445 915.07679012324661 2263.5673781552105 1384.2204156725493 649.84846438537716 619.14237074189441 585.99604679262006 522.98988829003065 515.89741103255074 587.48575777513906 338.69780762604205 238.51061544431923 221.42246111344207 215.97162378828943 140.06498075767513 119.11526169988792 127.8399582294478 239.22451747491868 117.17324861560408 111.92490678033937 84.563007390595885 74.042423920150043
threshold=1.5 20160906240 20170116096 9.9999996826552254e-21 5.5 20160412672 3.5 20170208256 20170517504 9.9999996826552254e-21 5.5 20160128000 9.9999996826552254e-21 5.5 2.5 20160717824 20160103424 5.5 9.9999996826552254e-21 9.9999996826552254e-21 5.5 20160822272 20170501120 20170611712 20161016832 17.5 20160726016 9.9999996826552254e-21 4.5 9.9999996826552254e-21 20170107904 20161223680 20160615424 17.5 20151120896 2.5 28.5 20170525696 20160721920 4.5 20170310656 20170628096 20170529792 20170427392 20.5 28.5 20151120896 10.5 2.5 20170109952 7.5 20170218496 1.5 9.5
decision_type=2 2 2 2 2 2 2 2 2 2 2 2 2 2 2 2 2 2 2 2 2 2 2 2 2 2 2 2 2 2 2 2 2 2 2 2 2 2 2 2 2 2 2 2 2 2 2 2 2 2 2 2 2 2
left_child=1 5 9 39 8 16 7 11 -5 30 24 33 38 15 17 -14 27 18 -9 53 -21 26 25 -24 -11 -16 -13 46 -29 -23 31 -3 -15 35 -35 -2 -12 -6 50 -4 47 42 -42 -19 -40 -41 -1 48 49 -8 -7 -49 -44 -18
right_child=6 2 3 4 37 12 40 14 -10 10 36 21 13 32 22 -17 19 43 -20 20 -22 29 23 -25 -26 -27 -28 28 -30 -31 -32 -33 -34 34 -36 -37 -38 -39 44 45 41 -43 52 -45 -46 -47 -48 51 -50 -51 -52 -53 -54 -55
leaf_value=-0.29269806001244525 -0.40457108759594534 0.38414916208121164 0.88561673688888554 1.3150526022511502 0.66332701483027534 -0.027081190622769868 -0.44263104875225667 -0.23273215238482525 1.7581708118622246 0.80616460551409741 0.48807190981967941 -0.29700973242302309 0.4569845948596265 0.043692144122154969 -0.17280089975000854 0.72494335908625351 -0.030166312610255736 -0.31577329477029187 0.10640515523872374 0.27268952007762137 -0.040758663109006665 -0.30800381867312171 -0.34230663849243403 -0.092056819716734559 0.99737396044987769 -0.00011904838177337813 -0.38936861434494846 0.067199438881344414 -0.15213805090256588 -0.22240849570553847 0.6561442197472962 -0.087449374377727512 0.22618764816372661 -0.13507098915479795 -0.41421175331705151 -0.50655147602070871 0.22939775039752328 0.83940653502941132 0.11376300523447436 0.66084758232966179 -0.49779202325808625 -0.28107287932086633 -0.48011661527449628 -0.21812135336376662 0.26348765417933467 0.50976052059290511 -0.18194752920498239 -0.45921723571097117 -0.45238343074041254 -0.34827361057777678 0.070547361066243777 -0.40591662091513475 -0.42918883264064789 -0.10060230380982804
leaf_count=41 668 191 25 1171 227 39 121 273 443 380 241 4874 907 124 605 510 51 140 1382 940 193 652 561 259 900 519 769 467 216 3952 27 25 161 79 900 663 27 64 43 262 1047 37 114 113 58 26 94 388 119 151 145 132 286 139
internal_value=0 12.79605195292679 20.695086603074053 24.631467773015565 26.489170787395455 5.1247268772387136 -5.5552179232728678 -5.0243257535834145 28.733534905713288 15.820215896803663 17.155015297513213 -6.078498154509262 8.6098386712126693 9.7067000927987976 -1.5878660343659026 11.068541152740584 1.8902957073992683 0.15366952558608424 1.0092573648200474 3.5213835936543711 4.3859086830172247 -5.5173743828715587 -3.2971509358002598 -5.2652863536802368 18.812173664066357 -1.8613226060301697 -6.1919188384231081 -0.74775963919669897 -0.043328873714974826 -4.6906032354611789 7.3170493441354099 6.5913199627840964 2.9357219105619086 -8.5676043397783257 -7.8337320966001096 -9.1073946674052788 9.2402290691996907 14.041048151776963 2.059459234231658 13.325000544920707 -9.1925497029948833 -9.5561892879057453 -9.6568009485519575 -5.443160015647944 3.9948699341552092 12.944155562901869 -4.3116575119671996 -8.6001884033157197 -8.1831867188939356 -7.8049758894314225 0.99708705655623064 -8.913741592948254 -8.8740650138258932 -1.6339160181778043
internal_count=26941 8137 4009 2218 1905 4128 18804 16409 1614 1791 1548 12557 1987 1702 3852 1417 2141 1908 1655 1323 1133 10247 1944 820 1280 1124 5643 818 683 4604 243 216 285 2310 979 1331 268 291 285 313 2395 1484 1447 253 101 288 135 911 391 272 184 520 400 190
shrinkage=0.05


Tree=14
num_leaves=55
num_cat=0
split_feature=5 0 4 4 4 0 1 3 3 5 0 3 4 4 1 3 3 4 5 0 0 4 5 0 1 3 3 3 3 4 4 4 0 4 4 0 3 3 5 5 3 4 1 4 4 3 1 1 5 3 4 3 1 1
split_gain=1726157.0269583731 389044.62550726859 233438.76948188082 158536.19959778897 60683.061060753535 55465.291425177595 80241.794777381467 46003.915961110499 70669.294306550641 26765.762522033154 45442.112859269648 24407.586416849808 19298.228920178997 18865.080920644708 17819.47725733486 11480.322450842446 11352.897193109122 10077.334502275371 9307.9715842337464 11161.576130688481 8805.6479407901352 8236.5283803455386 7391.2337897864491 7308.6064328663815 9841.7455223606958 6105.5997902201198 6538.6073988156968 5563.2009514159945 5527.7218297335785 5484.3560390577768 5267.1103469696827 4790.7539868493041 3530.1068515711213 3434.21756684928 3129.5191030136775 2931.7394219480002 2264.3732175820278 2848.2635609239796 1999.0676310527742 1986.9828470856955 1843.1714723126411 1524.496655127703 1322.307722817397 1288.2025785599817 1219.4694292666391 1141.6146684220948 776.96576175106929 748.61349512167362 665.9266497069766 623.76823859079741 588.0519231345188 508.72969595916948 422.00238018893288 534.06670608941204
threshold=1.5 2016.5 9.5 9.5 10.5 2015.5 6.5 9.9999996826552254e-21 4.5 3.5 2016.5 5.5 1.5 2.5 4.5 5.5 5.5 7.5 2.5 2016.5 2015.5 8.5 2.5 2015.5 8.5 9.9999996826552254e-21 4.5 1.5 1.5 8.5 1.5 17.5 2015.5 3.5 9.9999996826552254e-21 2015.5 9.9999996826552254e-21 5.5 3.5 3.5 1.5 2.5 10.5 17.5 7.5 1.5 1.5 3.5 2.5 5.5 9.9999996826552254e-21 4.5 2.5 5.5
decision_type=2 2 2 2 2 2 2 2 2 2 2 2 2 2 2 2 2 2 2 2 2 2 2 2 2 2 2 2 2 2 2 2 2 2 2 2 2 2 2 2 2 2 2 2 2 2 2 2 2 2 2 2 2 2
left_child=1 3 12 13 18 36 16 31 14 10 20 -8 28 23 -9 -10 -7 32 19 41 48 27 -22 -1 -25 43 -27 -14 50 30 39 47 -15 40 -30 -19 -5 -38 42 -20 -21 45 -31 -12 -32 -2 -35 -4 -6 -43 -3 -23 -11 -54
right_child=4 2 7 5 9 6 11 8 15 52 25 -13 21 17 -16 -17 -18 35 29 33 22 51 -24 24 -26 26 -28 -29 34 38 44 -33 -34 46 -36 -37 37 -39 -40 -41 -42 49 -44 -45 -46 -47 -48 -49 -50 -51 -52 -53 53 -55
leaf_value=-0.13244190837216119 -0.39786030387878424 0.75248135165734731 0.52823488958950704 -0.14856482554031045 -0.33003724184453764 0.47565760784297328 1.029688355138584 1.7626431403966512 1.3883911873530417 -0.35427934875394845 -0.25273414990123438 0.47088486120939771 0.17655646495195987 -0.34644026481311957 2.2508673694578269 0.85241861229704829 0.083896209351684251 -0.13570449429963316 -0.28092713421362647 -0.23381104002419476 -0.25919641260648535 0.94492315732770504 -0.14167882340007637 0.20306029994855052 0.63443539569323715 0.11156189608601651 -0.070375679177521924 0.48211213679251802 1.3969356656074525 -0.21971054881831209 -0.4730577183272846 1.1380303434703662 -0.077685695232611415 -0.35125979215028835 0.92911284406420214 0.21459995437726948 0.20106894976822828 -0.18907050410354581 -0.4381313252576533 -0.46215697028698072 0.0073791689682202264 -0.37058376172265295 -0.39310217734670988 -0.066375658222982151 -0.38422556480020287 -0.25721924778750044 -0.21280541639139622 0.78119483478998741 -0.41851519961178091 -0.45438896292378472 0.44921096024974699 0.69689042999826634 -0.43814383347555408 -0.34681080625714544
leaf_count=92 200 33 58 76 434 1219 1239 510 206 429 196 232 212 139 295 194 218 70 674 107 2667 72 2685 398 198 1558 723 501 72 557 2731 92 1010 122 71 407 350 54 187 195 305 1632 137 176 450 518 598 59 417 257 31 29 635 214
internal_value=0 12.15624936072715 22.737370238570186 7.6376542471621205 -5.2774570065363564 11.995386988623153 13.639237671365457 31.057405677804514 33.432890804526224 -3.6158522854391451 -2.9984816296760726 18.831123858834612 11.214813812441548 1.2573610198198655 38.831152188629837 22.568889769017698 8.324509361158686 -0.59993704998015729 -7.2196371961094981 -6.0297446489656918 -4.4799015781052507 9.0224186953418055 -4.0047999747784067 5.646847446411198 6.9273895210330219 0.4652379105071886 1.0778765283355138 7.8251935793230567 19.836116350215413 -8.1218899305996004 -8.6137660769276589 17.3614268371363 -2.2039642992856594 -3.407746791372293 23.293199979341946 3.2638518587242915 2.0363916023427011 2.9784319404598225 -5.8607112783536941 -6.4318871729791818 -1.1052007158874597 -7.1682569523012223 -5.0787831120547287 -3.2912908187035912 -9.2098216467268514 -5.9279005885705311 -4.7253148234552809 13.115917751931736 -7.4678496168893522 -7.6397105622316808 12.111695116385818 17.474116791592966 -7.893970069036774 -8.3024463320613897
internal_count=26941 8137 2435 5702 18804 3388 2908 1414 1205 10134 8856 1471 1021 2314 805 400 1437 1626 8670 3739 6203 814 5352 688 596 2653 2281 713 207 4931 4050 209 1149 1132 143 477 480 404 881 869 412 2607 694 372 3181 718 720 117 851 1889 64 101 1278 849
shrinkage=0.05


Tree=15
num_leaves=55
num_cat=0
split_feature=5 6 6 6 3 3 5 6 6 3 3 6 3 3 5 6 3 3 6 3 3 3 6 6 6 3 3 3 6 3 6 6 2 6 5 6 6 6 6 6 6 2 6 2 6 6 6 2 2 1 2 6 6 3
split_gain=1557856.7167715335 406838.44949955028 56817.40999068669 43098.770405473464 38315.327545894077 44363.686205073725 29812.748595439771 49771.809870648663 21508.854222367518 17914.33404216409 17399.210861949308 15416.723196710693 12580.885184609782 11931.533045281743 9563.4858743013247 9196.949453112582 7818.7924327283072 9178.8286789585654 6659.7727803192938 8497.9733797324916 6434.6771415690964 7124.3051240641653 6368.6464247457334 5367.2643243972561 3590.134111815576 2288.8142028747375 2683.1055298797492 2116.6362040364475 2115.4519753179047 1640.1314790245378 976.86287268468732 1730.4958434471255 838.37469232763397 2062.5108788946309 1214.3266640814109 655.16438445077802 597.25835461131965 551.67952368073747 463.37706445796539 438.54145007784246 515.53978032528539 435.30309445534658 280.46974055237661 242.38847716872033 228.14004880857738 200.01748255865823 155.912860488874 111.90308191562508 109.68776012026865 135.16821835606606 108.79221553413441 105.78432541538223 100.33588844782207 77.215539493347023
threshold=1.5 20160914432 20170116096 20160502784 9.9999996826552254e-21 5.5 3.5 20170218496 20170517504 9.9999996826552254e-21 5.5 20160128000 9.9999996826552254e-21 5.5 2.5 20160115712 5.5 9.9999996826552254e-21 20170226688 3.5 9.9999996826552254e-21 5.5 20160717824 20160822272 20170501120 9.9999996826552254e-21 5.5 9.9999996826552254e-21 20161115136 9.9999996826552254e-21 20170107904 20161223680 17.5 20151120896 2.5 20161223680 20160820224 20170519552 20160615424 20170310656 20170628096 4.5 20170529792 23.5 20170427392 20170318848 20160904192 10.5 1.5 2.5 26.5 20151120896 20170218496 1.5
decision_type=2 2 2 2 2 2 2 2 2 2 2 2 2 2 2 2 2 2 2 2 2 2 2 2 2 2 2 2 2 2 2 2 2 2 2 2 2 2 2 2 2 2 2 2 2 2 2 2 2 2 2 2 2 2
left_child=1 3 9 15 41 8 7 11 -6 30 28 32 36 22 16 25 17 -9 19 -16 50 -22 -14 27 -20 51 -27 -13 -11 -25 31 -3 34 -34 -2 -12 43 -7 -15 47 42 -4 -41 -5 -18 -43 -38 48 -8 -50 -17 -1 -49 -44
right_child=6 2 4 12 5 37 39 14 -10 10 35 23 13 38 18 20 44 -19 24 -21 21 -23 -24 29 -26 26 -28 -29 -30 -31 -32 -33 33 -35 -36 -37 46 -39 -40 40 -42 45 53 -45 -46 -47 -48 52 49 -51 -52 -53 -54 -55
leaf_value=-0.2688380769113215 -0.36781687978989708 0.33121869783742092 0.79988262832164769 0.023885591151192785 1.1868587579591283 0.5874867619955263 -0.4387465448429187 -0.20797355578709467 1.5958839874100741 0.80414093478070015 0.46034662275602234 -0.35591171032236418 0.43512150969171082 0.066906981237013552 -0.072527446377445279 -0.057885713443833559 -0.30307239280980935 0.11629586165041522 -0.096444552425127519 0.87942975504057752 0.27980430712895721 -0.034805895841455083 0.65620861803313635 -0.28086768455796496 -0.24193684901860429 0.050351724596813689 -0.20642953094314126 -0.26775204932874475 0.93744438903430771 -0.1969053779662156 0.59603702392843039 -0.11349576508998871 -0.10948636703004566 -0.37594185767793614 -0.46333412801563112 0.26322989469429231 0.18275769458876717 0.7442101837773073 0.20988637060803528 -0.45055262600111762 -0.24793728259769648 0.52567833252619989 -0.43612785172044188 0.14400172472931447 -0.2028206224594496 0.61299933974436904 0.35054009278304876 -0.41616924392424298 -0.33719914441599563 -0.40530292654055211 -0.15323574323621061 -0.17438247817281252 -0.36570346300123319 -0.3874628309759644
leaf_count=41 668 175 25 140 1171 215 48 263 443 583 206 792 714 85 71 177 114 1282 878 35 1009 219 599 675 820 701 119 4851 608 4205 27 25 79 900 663 53 45 76 170 1047 37 101 114 60 113 187 20 388 238 105 36 107 132 286
internal_value=0 11.548436891897726 18.92765655184191 4.7728450542073464 22.248686146206492 23.93341564082851 -5.0135841566921799 -4.5325370698012701 25.982505724817869 14.535263206403243 15.828454375400625 -5.4518964618922263 8.4269774237569415 9.5039986802326819 -1.2332811753093151 1.9924280208389744 0.41676372850553445 1.2219320318941931 -2.8540569899212405 4.8359608931361509 3.5938625491710896 4.4739422590201814 10.71966062637822 -4.938363712427285 -3.3341169991109245 -0.3915256520190607 0.26174255512518491 -5.6025067016447032 17.443834651721364 -4.1703803337072252 6.2747909815300931 5.5125877994298937 -7.7912493288271065 -7.0888068417878678 -8.307921901938613 8.4001999001187713 2.0542629703457624 12.568359298701958 3.2445314830205603 -8.3094094797789992 -8.6446795638078306 11.994981075104434 -8.7389294288656014 1.1984086244925856 -5.0633465302410627 11.647526952593276 4.6876609575863064 -7.7632615053566205 -7.3590812179143246 -7.1609448196947492 -1.4800242287382273 -4.0109846375479892 -8.0671739907218853 -8.0266472377628091
internal_count=26941 8137 3895 4242 2218 1905 18804 16409 1614 1677 1450 12833 1833 1568 3576 2409 1772 1545 1804 106 1441 1228 1313 10523 1698 968 820 5643 1191 4880 227 200 2310 979 1331 259 265 291 255 2395 1484 313 1447 200 227 288 65 911 391 343 213 148 520 400
shrinkage=0.05


Tree=16
num_leaves=55
num_cat=0
split_feature=5 6 4 4 4 6 6 4 5 6 4 6 6 6 4 5 5 6 6 4 6 4 4 4 5 1 6 4 6 6 4 4 6 4 6 2 4 5 6 4 4 6 4 6 6 5 6 4 6 6 5 2 4 4
split_gain=1405965.6710758186 367171.69602611172 264755.79940661765 87425.983381992235 54788.784183842363 53457.050345506519 41861.758823732409 26437.580552384563 22251.827598827062 39487.259146266995 14311.590326872894 12507.417986528264 11697.365778540145 10302.603443537606 9719.9771882513323 8305.5438598890105 7704.5864992214483 10499.319234070121 7628.5248281227687 7206.0628196571924 5903.8945282390632 5849.5845714891329 4944.2215656166663 4844.9181827900466 4158.6867688731727 5224.2366164394625 5016.9677944287232 4054.3046179993944 3844.7104756320477 3487.5754872514517 3235.1744408763325 3216.8753883029713 2893.5866892074609 2675.8213375082123 2553.3765090618617 2175.8260175256873 1846.143420125175 1637.6870903710515 1606.1546543591176 1492.7555682503444 1373.5352731050225 1328.8599403498447 1306.3045393042776 1265.0270763794178 1245.0136248209888 1240.551699304071 1193.2864554063299 1065.5608016853512 912.04618758618381 828.58955721787061 606.62926028915535 553.01733070037881 488.2169131605857 428.37762693328841
threshold=1.5 20160914432 9.5 9.5 10.5 20170312704 20160502784 2.5 3.5 20170218496 6.5 20160119808 20170507264 20170107904 1.5 2.5 2.5 20170212352 20160207872 9.9999996826552254e-21 20160619520 21.5 8.5 9.9999996826552254e-21 2.5 4.5 20170507264 8.5 20161221632 20170116096 2.5 3.5 20160128000 18.5 20160115712 1.5 9.9999996826552254e-21 3.5 20160128000 2.5 10.5 20170107904 20.5 20170116096 20160424960 3.5 20160103424 2.5 20160228352 20161002496 2.5 28.5 9.9999996826552254e-21 7.5
decision_type=2 2 2 2 2 2 2 2 2 2 2 2 2 2 2 2 2 2 2 2 2 2 2 2 2 2 2 2 2 2 2 2 2 2 2 2 2 2 2 2 2 2 2 2 2 2 2 2 2 2 2 2 2 2
left_child=1 3 7 14 16 13 18 19 9 11 31 50 35 28 32 -13 17 39 46 41 42 -14 23 45 26 -26 -11 34 -4 -12 52 -9 -1 -15 -16 -7 -34 38 -24 48 -22 -3 -8 -21 -29 -18 -5 -25 -2 -41 -6 -20 -19 -32
right_child=4 2 5 6 8 12 20 10 -10 24 29 15 21 33 27 -17 22 30 51 43 40 -23 37 47 25 -27 -28 44 -30 -31 53 -33 36 -35 -36 -37 -38 -39 -40 49 -42 -43 -44 -45 -46 -47 -48 -49 -50 -51 -52 -53 -54 -55
leaf_value=-0.06437828156001428 -0.36305424734200847 0.80967266455603149 0.99759456004646929 0.085674613131449959 -0.30201528116595 0.89611098766326913 0.53987017183573949 0.32263170352568793 -0.35423938713633313 0.049207313979497631 0.33454578509810595 -0.21663919939049692 1.8039491922585005 1.1525935678357957 -0.28227977456862297 -0.097147455077450123 -0.1959234437426286 0.13243575167088281 0.34895066411108905 0.47013597037259713 0.44393962511890817 1.2485171777230724 -0.40494467971393616 -0.3663985013953297 0.10552608556542042 -0.12820291113326546 0.28392473719242017 0.00086061820080599841 0.69892882502079012 0.60210043261691504 -0.2138183249672054 0.063931658630433486 0.39574466028766669 1.3944085763153418 -0.10367140576993002 1.3960780844830052 0.12743785086893986 -0.39544165424484623 -0.19589368525812897 -0.36444919478714788 0.75310424432076384 1.1067614340546108 0.31459559124053982 0.67170709864451339 0.27316421922359213 -0.3904637643806288 0.21604861939762163 -0.42978883705359777 -0.23474308603296357 -0.29470825476955681 -0.37509815083018372 0.53625975109281998 -0.018485328995597527 -0.12875663735435181
leaf_count=85 179 60 781 505 576 23 299 159 1278 555 218 2897 388 317 254 2920 350 84 638 136 38 54 109 877 518 444 386 97 125 276 397 492 139 179 943 404 119 187 585 1486 658 101 82 182 74 107 269 2716 612 597 560 42 148 236
internal_value=0 10.971014948039643 17.981273580622766 4.534202742968624 -4.7629049596545308 24.953210600872019 8.2668234680071677 8.2317237204096738 -3.1840588218719841 -2.6211487540250693 5.6220701739810179 -3.7258452347962434 31.115726422111241 21.133505715952705 -0.98728355456063055 -3.1331419269741239 -6.6083521061699093 -5.5257848486553742 4.7666601306480834 14.469830840787148 12.992206469418598 34.721819646757652 -7.4292239325432305 -7.896250840789742 1.4150859442418633 -0.046976719756384157 2.9097769992538867 -2.1807538917171088 19.127758378010842 9.6805951641156121 -2.4712986584647822 2.5423292444472398 3.7726797726407169 24.797229684048123 -2.8314318860730867 27.382955449526428 5.4398148863092644 -5.2822784406041023 -4.5745468577759221 -6.445106544728743 14.7244913367121 19.920902448804668 9.8277175779847958 11.710011567545575 2.3739920687747369 -4.8294454310130108 2.6197095154868846 -8.2863232238312019 -5.2755873306294108 -6.8892206581961322 -6.7608409580367974 7.2103950955521539 0.72317021112118307 -3.6420992552166682
internal_count=26941 8137 3895 4242 18804 2271 2531 1624 10134 8856 1145 6953 869 1402 1711 5817 8670 3739 1454 479 1077 442 4931 4050 1903 962 941 1368 906 494 865 651 343 496 1197 427 258 881 694 2874 696 161 381 318 171 457 774 3593 791 2083 1136 680 232 633
shrinkage=0.05


Tree=17
num_leaves=55
num_cat=0
split_feature=5 6 4 4 6 4 3 3 6 4 5 6 3 3 3 6 4 4 6 3 5 3 5 6 4 4 6 3 3 4 4 4 3 4 6 4 3 3 6 3 6 5 6 4 3 4 3 6 5 4 2 4 6 3
split_gain=1268884.0344553066 332173.98421676492 221844.34008879028 94094.210122874996 51653.751951893471 49446.877417489362 46330.312983311014 71531.996333143208 34113.472071830416 20486.733775763088 20082.27469187208 35792.413650732822 13120.399526636727 16020.885135931487 12465.773495165398 12353.917044295289 11441.34866424477 11158.964169740313 10752.653512820354 8935.7847770467197 7529.9173335757441 7393.0677481504172 6953.3891772503266 9475.635748405999 6207.8781748590845 5864.868435140791 5495.4699031731188 5475.5442410920195 6169.0424901723245 4520.4911156652233 4462.1598268864618 4372.5387001923518 4136.2386128089202 2977.0636350183167 2861.4585805332645 2784.8233519514042 2781.4149251406807 2471.3885054134807 1941.05522326354 1763.5572902166168 1659.2663575860752 1478.0126610630941 1449.5546177153283 1373.7381237325462 1422.074465857484 1364.078338008856 1287.3460555343449 1174.8859136225437 1119.5979319658745 961.66855536369258 723.44055640356964 690.25327291106532 686.2719728495963 681.14156264021585
threshold=1.5 20161016832 9.5 9.5 20160619520 10.5 9.9999996826552254e-21 4.5 20170509312 2.5 3.5 20170204160 5.5 9.9999996826552254e-21 5.5 20160207872 2.5 6.5 20160123904 1.5 2.5 9.9999996826552254e-21 2.5 20170212352 17.5 7.5 20160615424 9.9999996826552254e-21 5.5 9.9999996826552254e-21 8.5 9.9999996826552254e-21 5.5 3.5 20160504832 3.5 9.9999996826552254e-21 1.5 20170107904 1.5 20160115712 3.5 20160128000 3.5 1.5 9.9999996826552254e-21 1.5 20170107904 3.5 2.5 17.5 7.5 20170505216 5.5
decision_type=2 2 2 2 2 2 2 2 2 2 2 2 2 2 2 2 2 2 2 2 2 2 2 2 2 2 2 2 2 2 2 2 2 2 2 2 2 2 2 2 2 2 2 2 2 2 2 2 2 2 2 2 2 2
left_child=1 3 9 16 15 22 24 8 -8 19 11 18 13 -6 -9 36 26 35 50 45 -20 -17 23 43 38 39 40 52 -29 -21 31 48 -19 46 -27 -11 -5 -28 -4 -18 -1 42 -32 44 -2 -3 -25 -26 -24 -33 -7 -35 -13 -45
right_child=5 2 6 4 12 10 7 14 -10 17 -12 27 -14 -15 -16 21 25 32 20 29 -22 -23 30 33 47 34 37 28 -30 -31 41 49 -34 51 -36 -37 -38 -39 -40 -41 -42 -43 -44 53 -46 -47 -48 -49 -50 -51 -52 -53 -54 -55
leaf_value=-0.11020160679030544 -0.35382454565015892 0.58108269318937122 0.20392515771922526 -0.085555558200954035 0.31389216142948029 -0.34767020607481203 1.4141268782309389 1.1053684619449129 2.0783003911739444 0.34729517047711905 -0.33652741920861751 -0.082535088243405469 0.2905187608791398 0.91131324371673106 0.64488805919371806 0.06187183281740484 -0.27610309932954535 0.54640197810726698 -0.21007560387020174 1.1195755433577756 -0.093479901514746416 0.44069385780435583 -0.186127269320323 -0.16980822416834343 0.6502770208543347 -0.06739185244708161 0.070337210909700867 0.12644785738270309 -0.12829299174063571 0.71452761131028342 -0.38469744823667984 -0.34807857690992827 0.099765717996089437 -0.23525968684759052 0.20787858924593855 0.08972030978364931 0.16721834856669185 0.47290835195029812 0.56499538776036862 -0.12792708395239347 0.11934433670068274 -0.37566957492879371 -0.18609900061582399 -0.32034396765511186 -0.22443483300349804 0.22347628358751537 0.064744091313829827 1.0077001276980624 -0.37094057585312945 -0.40829939365123613 -0.26777092200944325 -0.12231880492862252 -0.23751429683071074 -0.40980539753185052
leaf_count=116 295 40 56 131 135 735 903 298 246 138 1278 181 143 665 290 150 289 381 2759 104 2780 911 350 78 31 205 51 1541 281 204 109 877 60 317 175 438 643 151 111 658 245 187 585 1575 758 80 234 89 107 2716 461 236 118 246
internal_value=0 10.422464298990519 17.834097593330512 4.9145474399362268 8.6177784813301646 -4.5247597093797181 24.59104745041877 26.535818147347037 31.126518142233735 8.3696917035404503 -3.0248558831641765 -2.4900913149292574 14.632935984524348 16.209968721615152 17.565215606318446 5.5266103475360957 -0.52861437646184528 5.9270270589914444 -3.618270865034066 14.173873814536568 -3.0311345632384241 7.7427498469816944 -6.2779344931015508 -5.2494956086901334 12.820780201065467 -2.1312191948835864 3.2487507994629339 1.0923175817967614 1.7432032661649484 17.025940858214707 -7.0577627204011435 -7.5014382764699379 9.7127027999380555 -2.3477337066251032 1.187548598230922 3.0286190698291953 2.4887240311126066 7.4253820693950248 8.8783589070272484 -3.4629317201037697 0.91168842681395224 -5.0181645341598085 -4.3458195163704652 -6.1228512263958583 -5.2136722579952206 6.853568402429346 0.1221202488657302 18.307316501935322 -4.5879731237810892 -7.8720070420638155 -6.3374581356411399 -3.7412136959797868 -2.8739490299719233 -6.6485873349767868
internal_count=26941 8137 3469 4668 2778 18804 2024 1737 1149 1445 10134 8856 943 800 588 1835 1890 1017 6735 428 5539 1061 8670 3739 287 1327 563 2121 1822 308 4931 4050 441 865 380 576 774 202 167 947 361 881 694 2874 1053 120 312 120 457 3593 1196 553 299 1821
shrinkage=0.05


Tree=18
num_leaves=55
num_cat=0
split_feature=5 6 4 4 3 3 4 6 6 5 6 4 4 4 3 3 6 4 3 3 5 5 6 4 3 3 6 4 4 4 3 4 4 6 3 3 6 5 5 6 6 4 3 4 6 3 6 4 2 2 3 4 4 6
split_gain=1145167.836439522 300517.1623848587 219951.74426677777 67442.255369092338 45675.83577756607 58382.174685043981 44625.807532261417 41369.338770083152 30943.823939772483 18124.252186989586 32408.29907630213 17288.076232182866 19900.010142497413 10999.314575465964 10485.247459887119 13077.385593212559 10176.010105351103 7780.9454796661093 7572.3796631272889 9953.1449155237497 6531.5460070481058 6275.433882685611 8589.9716710158536 5712.2139335364627 5166.408616916051 5856.7347359353989 5158.4514243943122 4027.0993326357566 3946.6084940602595 3503.7741455359601 3400.193953789334 2617.5365389082535 2259.4465788888047 2235.8557432129969 2197.4150488381019 1635.0931342876174 1513.9914697031309 1429.86517849542 1333.9063870238497 1331.7428334738288 1308.2229947388787 1233.2633602283022 1179.2527004325084 1135.952725142939 1037.1209317586045 999.92960323365332 670.28143799113468 653.84509752887152 652.90518783036532 640.00006874610699 610.47948818891018 568.07990499465438 415.21393550935454 368.2250102545222
threshold=1.5 20160906240 10.5 9.5 5.5 9.9999996826552254e-21 10.5 20170509312 20160502784 3.5 20170218496 9.9999996826552254e-21 8.5 2.5 5.5 9.9999996826552254e-21 20160123904 1.5 9.9999996826552254e-21 5.5 2.5 2.5 20170130432 17.5 9.9999996826552254e-21 5.5 20170116096 8.5 1.5 8.5 1.5 3.5 18.5 20160128000 1.5 1.5 20170316800 3.5 3.5 20170511360 20160128000 2.5 1.5 7.5 20160412672 1.5 20170505216 7.5 17.5 4.5 9.9999996826552254e-21 17.5 18.5 20170621952
decision_type=2 2 2 2 2 2 2 2 2 2 2 2 2 2 2 2 2 2 2 2 2 2 2 2 2 2 2 2 2 2 2 2 2 2 2 2 2 2 2 2 2 2 2 2 2 2 2 2 2 2 2 2 2 2
left_child=1 3 11 17 5 23 21 -7 18 10 16 30 13 -13 15 -10 48 33 51 -20 -18 22 41 -4 46 -26 -14 28 37 34 -3 42 36 -1 -19 -35 -6 -23 40 -32 -29 45 -24 -30 -31 -2 -12 -33 -8 -34 -43 -5 -16 -11
right_child=6 2 4 8 32 7 9 -9 14 53 24 12 26 -15 52 -17 20 29 19 -21 -22 27 31 -25 25 -27 -28 38 43 44 39 47 49 35 -36 -37 -38 -39 -40 -41 -42 50 -44 -45 -46 -47 -48 -49 -50 -51 -52 -53 -54 -55
leaf_value=-0.056999556299518139 -0.33049017237628114 0.52677903408589566 0.41079382141001486 -0.12307833912117142 0.37900801258422434 1.2446722401303045 -0.33028669925064458 1.9124246102885196 0.21081225634135051 -0.32570974849188977 -0.068137480922137644 0.5203362743309714 0.48319278279442096 0.18652959400143385 0.13739803250879051 0.73201219342480606 -0.19420059697184261 -0.24216615694938254 0.32595133105285662 -0.057990297712016817 -0.08768510692100101 -0.22738665003387895 -0.17131806837555597 0.84479476703819667 0.1387115606944434 -0.12521529540930304 0.86226693939456001 -0.3654625731597253 -0.39424479781888383 -0.0058076469269063742 0.95126947422617492 -0.2269420956543019 0.99745200655677102 0.026041275674872327 -0.091137957172922612 0.31592262926939374 0.68286432750889514 -0.38112428067586362 -0.35688609418703277 1.3744454715562906 -0.17679405136304535 -0.3845308277840005 0.044375403506984545 -0.30850847344597182 0.24415569497686632 -0.20380713094670774 -0.22563858212177026 -0.12187662404890245 -0.25438237440834982 0.70086242917038144 -0.30325516065724611 0.036974398539674401 0.30648820345339023 -0.19982246382803215
leaf_count=85 217 46 164 126 125 1246 735 285 145 1217 158 327 167 1006 100 708 2868 341 1027 202 2889 674 84 141 1379 248 194 109 2731 90 97 344 22 66 820 185 61 195 187 23 585 266 258 450 77 552 118 260 461 105 1758 99 57 61
internal_value=0 9.9013410597634799 16.068062027493106 3.9123913602411764 22.959088866974639 24.862623899762696 -4.2985217193190559 27.379524822137 7.2340309459545242 -2.8736130738298118 -2.3655867441314946 8.1063326306942773 7.1519682909195161 5.3683230798450126 11.485981009148135 12.868286286383553 -3.3663759084179188 -1.006190333988203 4.2804755375463071 5.2569239520497373 -2.8149716380407037 -5.9640377762265535 -4.9870208243421104 12.228606482860862 1.2910013059386616 1.9696355124293827 13.738115289153072 -6.704874601028 -7.1263663839441325 -2.0938928330081152 17.845448242612633 -2.3826187483412085 11.793305096371224 3.2928243049952601 -2.709935993135848 4.7939769409864068 9.5731962958140482 -5.237694749243448 -4.7672563027188808 20.647564140955605 -4.1285285452965876 -5.8691419714587783 -0.17203880928331516 -7.6423222627730834 2.1888982382990574 -4.7911028267421498 -2.7094981649323651 -3.6343047403243203 -6.0205852600580769 15.044803024746301 -6.2787329310867861 -1.053102691007985 3.9757491525760882 -6.3940208796266003
internal_count=26941 8137 4009 4128 2149 1836 18804 1531 2464 10134 8856 1860 1694 1333 1010 853 6953 1664 1454 1229 5757 8670 3739 305 1903 1627 361 4931 4050 1328 166 946 313 336 1161 251 186 869 881 120 694 2793 342 3181 167 769 276 604 1196 127 2024 225 157 1278
shrinkage=0.05


Tree=19
num_leaves=55
num_cat=0
split_feature=5 6 4 4 6 4 6 4 5 6 6 6 4 4 6 5 6 5 4 4 4 6 6 6 4 4 4 6 4 4 4 4 4 2 6 4 2 6 6 4 5 6 6 6 6 5 6 4 6 4 5 4 4 6
split_gain=1033513.9715202348 273021.58481754607 181154.31003383442 76618.383843141448 42123.769312957331 40274.791251952411 33521.8253721582 16720.752365630426 16357.138426129663 29325.219636301255 12875.873492664192 10569.822221334776 9558.8015628666453 9510.207458990204 7829.3530490803532 5663.5791650997708 7767.240469090757 5431.1762703058848 5160.7128730457043 5135.2593417163544 4818.6694040199654 4743.0477502869326 4642.1998949036779 4578.4844919470743 3634.4572067095432 3685.6554046108795 3550.1207229084102 2965.4708895061776 2913.0963467707625 2513.3029823880206 2490.6260934332977 2455.6974372291661 2455.4842883198185 2322.6998428621155 3227.2311690889328 2111.0276684148193 1713.1239326531368 1712.0927885860583 1369.8198546683825 1349.9524447702679 1203.8504791918203 1180.6712673357742 1165.1047305986576 1152.6137755022864 1081.4112017942416 923.89650132251063 896.31506506657752 802.00423886507633 789.81332737691628 691.58760371146491 546.75797738700203 494.49103962059962 437.10570632192497 366.19743392547389
threshold=1.5 20161016832 9.5 9.5 20160619520 10.5 20170507264 2.5 3.5 20170103808 20170107904 20160207872 2.5 6.5 20160119808 2.5 20170212352 2.5 21.5 6.5 9.9999996826552254e-21 20161221632 20170611712 20160615424 8.5 9.9999996826552254e-21 10.5 20160416768 10.5 3.5 2.5 8.5 17.5 18.5 20160828416 9.9999996826552254e-21 13.5 20160709632 20160115712 3.5 3.5 20160128000 20161002496 20160424960 20160103424 3.5 20170107904 7.5 20170116096 1.5 2.5 3.5 9.9999996826552254e-21 20170304512
decision_type=2 2 2 2 2 2 2 2 2 2 2 2 2 2 2 2 2 2 2 2 2 2 2 2 2 2 2 2 2 2 2 2 2 2 2 2 2 2 2 2 2 2 2 2 2 2 2 2 2 2 2 2 2 2
left_child=1 3 7 12 11 15 10 20 9 14 21 44 23 29 50 16 42 -16 28 39 46 -4 32 38 25 45 -12 -21 -8 -9 52 -15 -11 37 -35 -25 -24 -6 -1 -14 41 -26 49 -13 -5 -17 -3 -27 -22 -2 -7 -44 -18 -10
right_child=5 2 6 4 33 8 18 13 53 22 26 43 19 31 17 24 30 -19 -20 27 48 -23 36 35 40 47 -28 -29 -30 -31 -32 -33 -34 34 -36 -37 -38 -39 -40 -41 -42 -43 51 -45 -46 -47 -48 -49 -50 -51 -52 -53 -54 -55
leaf_value=-0.10052216087050479 -0.23530747412766018 0.68526581276294796 0.90010587692344457 0.064516480881812985 0.35903867011588508 -0.25578921472964189 1.1444910338050442 0.32060392854222353 -0.26747278149122011 -0.042849314544068873 0.77957194171090061 0.306264341599573 -0.068625724825243914 0.35877820565600477 -0.19663427107279385 -0.16545157387214049 0.12571805846833048 -0.093478162530762396 1.0385779014340153 -0.1040417527667898 0.40999594180315146 0.5579564435824752 0.57756341944138212 0.55549199621503553 -0.34718944531515106 -0.36445186663211737 1.1524260519085501 0.1263656173477925 1.6054236823490688 0.075907815398423006 -0.15688808633508911 0.6082331794695367 0.059905630951627681 0.66223939428817147 0.98268381709402264 0.21800679987153182 0.17769898360390218 0.62676942125285917 0.10804373577978386 -0.22096490044768743 -0.33904178727438106 -0.16795434850132748 -0.17603929389165018 0.41184019774298763 0.18862857046402079 -0.33333733138915539 0.95784122884863676 -0.29308304973484745 0.58379828343270246 -0.31044252076482193 -0.32517195989510844 -0.25603677942605257 -0.017084745211979828 -0.32348103803169193
leaf_count=116 375 43 534 505 68 576 38 138 451 1246 69 615 195 292 2542 350 84 2562 54 266 102 125 30 72 109 3143 854 294 350 438 633 149 1090 275 110 130 250 490 245 572 187 585 307 446 269 107 101 450 182 1671 560 521 148 827
internal_value=0 9.4062740018578861 16.125660268689121 4.4127969325267911 7.754484563488969 -4.0835956326159906 22.231576687915862 7.5731517340767178 -2.7299324201727999 -2.2473073947534061 20.080447611035179 4.9629995267274882 -0.49895345837952049 5.3663902669783772 -3.4255328676166337 -5.6658358857762323 -4.7376697744409979 -2.8970821687729438 29.930866732316858 -1.9637913207643536 12.816788210803383 16.704130310316504 0.56313868730566796 2.9536927998525822 -6.3696308746795873 -6.7700480717003204 22.491057688146345 0.33844233086731818 31.205615881792049 2.6906585167825039 -2.1104828677490097 8.8612235733566607 0.1019425669123661 13.186483548067249 15.075898873225436 6.7659710604734347 4.410832034586929 11.882854694687497 0.82050662631958393 -3.6446920312125104 -4.5288934763436384 -3.9221021156376952 -5.5283853883201113 7.0128802691255396 2.1530208863084535 -4.0951923550936016 17.528943619794315 -7.1102676827465974 10.427526313286851 -5.9334286900869007 -5.7998395286185644 -4.5275175194615942 0.69239436379023667 -6.0743199202621208
internal_count=26941 8137 3469 4668 2778 18804 2024 1445 10134 8856 1582 1835 1890 1017 6240 8670 3739 5104 442 1327 428 659 2616 563 4931 4050 923 560 388 576 865 441 2336 943 385 202 280 558 361 767 881 694 2874 1061 774 457 144 3593 284 2046 1136 828 232 1278
shrinkage=0.05


Tree=20
num_leaves=55
num_cat=0
split_feature=5 0 4 4 4 3 3 0 1 3 5 0 4 4 1 3 4 3 4 3 5 3 0 0 5 3 3 3 4 0 4 4 3 4 4 3 0 3 3 3 4 4 4 4 5 2 3 5 4 5 2 3 4 1
split_gain=932746.36073593947 218277.61899353308 140795.69168738753 94933.619194397848 36355.315177318873 31784.311301577953 52262.550575054251 31208.950037822884 42393.115265520348 16581.982380824629 15158.155693773675 27007.990931950444 11804.138362013822 11747.004092107571 9676.8748124780832 8608.3722364997884 7487.2810967525438 7226.5011482734335 6740.0316450155497 6705.994382031975 5985.5597849888436 5405.3211938905242 5282.9816237209889 4937.9642203660333 4810.1018967552445 4538.9335449838809 4944.7697261971407 3753.7757648880252 3559.4340409696815 3089.3555918430684 2895.2189877139754 2427.1517671303736 2399.2235762127211 2371.0341580670756 2049.1013282875356 1691.8675970482573 1661.6295259553149 1581.5983592101202 2070.1417092427855 1299.9595370041141 1233.0903725476237 1143.0605393979959 991.72345045866678 941.09632275827289 833.81655929311819 1042.2062066410335 813.55325395085129 728.93982180566672 640.18831303227614 513.16597065377209 471.53242173110993 422.76916026504477 411.84422354267008 371.57726823128178
threshold=1.5 2016.5 9.5 9.5 9.5 9.9999996826552254e-21 4.5 2015.5 6.5 5.5 3.5 2016.5 2.5 2.5 3.5 5.5 6.5 1.5 7.5 5.5 2.5 1.5 2016.5 2015.5 2.5 9.9999996826552254e-21 4.5 9.9999996826552254e-21 17.5 2015.5 9.9999996826552254e-21 9.9999996826552254e-21 1.5 3.5 7.5 1.5 2015.5 5.5 9.9999996826552254e-21 1.5 2.5 17.5 2.5 9.9999996826552254e-21 3.5 19.5 1.5 3.5 9.9999996826552254e-21 2.5 7.5 5.5 6.5 2.5
decision_type=2 2 2 2 2 2 2 2 2 2 2 2 2 2 2 2 2 2 2 2 2 2 2 2 2 2 2 2 2 2 2 2 2 2 2 2 2 2 2 2 2 2 2 2 2 2 2 2 2 2 2 2 2 2
left_child=1 3 13 12 20 28 14 37 15 -10 11 23 21 17 -7 -9 35 43 32 -8 22 48 42 49 -25 41 -27 -18 50 -23 44 -19 -14 39 40 -15 -20 38 -5 -24 -32 -13 46 -3 45 -22 -2 -36 -1 -6 -4 -44 -35 -12
right_child=4 2 5 7 10 6 19 8 9 -11 53 25 18 16 -16 -17 27 31 36 -21 30 29 33 24 -26 26 -28 -29 -30 -31 34 -33 -34 52 47 -37 -38 -39 -40 -41 -42 -43 51 -45 -46 -47 -48 -49 -50 -51 -52 -53 -54 -55
